{"predictions": [{"variant_sequence": "TCATAGTAACAGCTTAAATGTTTTCCAAAGCTTATACTTAACTAGCTTTTTCCTAGATCTCTTTATTCTTTATTA", "score": 0.006549185141921043, "weights": [-0.05603901296854019, -0.06707753986120224, 0.004391002934426069, -0.03606617450714111, 0.0024663922376930714, -0.09050662070512772, -0.14464029669761658, -0.06303507089614868, -0.005732061341404915, -0.045304737985134125, -0.01708659715950489, -0.12114733457565308, -0.2661263346672058, -0.26420629024505615, -0.22677436470985413, -0.11347059160470963, -0.04133627936244011, 0.02965255081653595, 0.08163539320230484, 0.15643073618412018, -0.0016638333909213543, 0.01967012695968151, 0.016743279993534088, 0.009798377752304077, 0.03401445969939232, -0.102854885160923, -0.1627570241689682, -0.09054135531187057, -0.02973085828125477, -0.06752855330705643, -0.21397286653518677, -0.20269475877285004, -0.15166310966014862, -0.09276509284973145, -0.07925055921077728, -0.059088125824928284, -0.05728720873594284, -0.16038201749324799, -0.22681745886802673, -0.14494024217128754, -0.10409102588891983, -0.09192955493927002, -0.08868921548128128, 0.05548345670104027, 0.024035906419157982, -0.06091780960559845, -0.05203479155898094, -0.016796892508864403, 0.000628562003839761, 0.0051329489797353745, -0.0028865602798759937, 0.05736276134848595, -0.03758219629526138, -0.14184045791625977, -0.13546910881996155, -0.16147840023040771, -0.19975481927394867, -0.14302782714366913, -0.15118160843849182, -0.16239888966083527, -0.14511486887931824, -0.19576987624168396, -0.15491251647472382, -0.12249245494604111, -0.052163805812597275, -0.057135067880153656, -0.029493428766727448, 0.04369624704122543, -0.09539034962654114, -0.0640561431646347, -0.023502768948674202, 0.08721508085727692, 0.06762927025556564, 0.047760069370269775, 0.12700696289539337], "sequence": "TCATAGTAACAGCTTAAATGTTTTCCAAAGCTTATACCTAACTAGCTTTTTCCTAGATCTCTTTATTCTTTATTA", "variant_id": "rs10197243", "id": "rs10197243", "variant_weights": [-0.05611025169491768, -0.06707575172185898, 0.004262092523276806, -0.03641670569777489, 0.0022208227310329676, -0.09083759039640427, -0.1451042890548706, -0.06333289295434952, -0.006047706585377455, -0.04571440815925598, -0.017616702243685722, -0.12187644094228745, -0.2667546272277832, -0.2657032012939453, -0.22811654210090637, -0.11431976407766342, -0.04228607937693596, 0.028549924492836, 0.07980698347091675, 0.15489058196544647, -0.0038567574229091406, 0.01754624955356121, 0.01474823523312807, 0.007903384044766426, 0.03267054259777069, -0.10436451435089111, -0.16494256258010864, -0.09326746314764023, -0.033290475606918335, -0.07218171656131744, -0.22020602226257324, -0.21484234929084778, -0.1659063994884491, -0.11417143046855927, -0.10149049758911133, -0.07613705098628998, -0.06459527462720871, -0.1841641217470169, -0.16940616071224213, -0.09240271896123886, -0.056207988411188126, -0.0532766692340374, -0.07697387039661407, 0.06283584982156754, 0.021319884806871414, -0.06200234964489937, -0.05087021738290787, -0.015571888536214828, 0.002243563299998641, 0.007158809341490269, -0.0006712130270898342, 0.05845806002616882, -0.03758750855922699, -0.1406598836183548, -0.13332264125347137, -0.17338809370994568, -0.20019221305847168, -0.14352339506149292, -0.15369932353496552, -0.16594836115837097, -0.1491568684577942, -0.19893309473991394, -0.15784746408462524, -0.12494827061891556, -0.054364949464797974, -0.059130702167749405, -0.0318298302590847, 0.04068199172616005, -0.0976351946592331, -0.06586233526468277, -0.02516275644302368, 0.08629654347896576, 0.06763169914484024, 0.04790354520082474, 0.12669126689434052], "variant_score": 0.0066432710736989975}, {"variant_sequence": "AGAATCCCCCCAACAGAAAACCAGGCCAAGAAAGAATTCAGTTTCCTCCTAGCTGCACTAGGAAGCCAGCACCTT", "score": 0.048115868121385574, "weights": [0.11030155420303345, 0.1957193911075592, 0.10917215794324875, 0.041369274258613586, 0.09446831047534943, 0.09465356916189194, 0.028507113456726074, -0.04725376516580582, -0.11629525572061539, -0.17794166505336761, -0.22932173311710358, -0.2394554764032364, -0.20054081082344055, -0.15046055614948273, -0.16727319359779358, -0.11991389095783234, -0.19875076413154602, -0.12911128997802734, -0.025421610102057457, 0.017831357195973396, 0.005309981759637594, -0.036949824541807175, 0.042421117424964905, 0.061965957283973694, -0.10765285789966583, -0.3215004801750183, -0.33234459161758423, -0.2929641306400299, -0.22013185918331146, -0.11918886005878448, -0.21086734533309937, -0.1544942706823349, 0.01823078840970993, 0.05351787060499191, -0.015418806113302708, 0.012726077809929848, -0.03315136954188347, 0.010976380668580532, -0.0736648440361023, -0.002019142732024193, -0.0020942245610058308, -0.02752273716032505, 0.017179112881422043, 0.07529382407665253, 0.1939726024866104, 0.1479196846485138, -0.0006935048149898648, 0.011324720457196236, -0.053170956671237946, -0.028455134481191635, 0.09638244658708572, 0.11427520960569382, -0.008093362674117088, 0.07257921993732452, 0.02407892420887947, -0.1316239833831787, -0.04714621230959892, -0.08481742441654205, -0.02623453177511692, 0.08456827700138092, 0.04757415130734444, -0.12010318040847778, -0.019122499972581863, 0.07807887345552444, -0.010376181453466415, -0.12022348493337631, -0.1541862189769745, -0.038196686655282974, -0.11339867115020752, -0.203419029712677, -0.025413502007722855, -0.009444881230592728, 0.0430259108543396, 0.03653114289045334, 0.021038718521595], "sequence": "AGAATCCCCCCAACAGAAAACCAGGCCAAGAAAGAATCCAGTTTCCTCCTAGCTGCACTAGGAAGCCAGCACCTT", "variant_id": "rs1034435", "id": "rs1034435", "variant_weights": [0.11029599606990814, 0.19571438431739807, 0.10915476083755493, 0.04131640866398811, 0.09439016133546829, 0.09458444267511368, 0.028434621170163155, -0.04732188582420349, -0.11635696142911911, -0.1780010610818863, -0.2293837070465088, -0.2395070642232895, -0.20058296620845795, -0.15051059424877167, -0.16733920574188232, -0.12000169605016708, -0.1988791674375534, -0.12925778329372406, -0.025590158998966217, 0.017653508111834526, 0.005083216354250908, -0.03722194954752922, 0.04201790317893028, 0.061409711837768555, -0.10820802301168442, -0.3215025067329407, -0.3323918879032135, -0.2968862056732178, -0.22777609527111053, -0.1309983879327774, -0.24173855781555176, -0.18924902379512787, -0.01877320371568203, -0.004891084507107735, -0.06475196033716202, -0.027874059975147247, -0.05130412057042122, -0.011004696600139141, 0.021087707951664925, 0.05093936622142792, 0.0551137700676918, -0.0025609182193875313, 0.03300683572888374, 0.0827203243970871, 0.2035684436559677, 0.1525810956954956, -0.006004589609801769, 0.004626252688467503, -0.06055741012096405, -0.03559098765254021, 0.08947854489088058, 0.0985548198223114, -0.01836986653506756, 0.06558819115161896, 0.011534960009157658, -0.13991039991378784, -0.052546966820955276, -0.09056323766708374, -0.030654242262244225, 0.08069685101509094, 0.0403345450758934, -0.12733818590641022, -0.023170683532953262, 0.07458014786243439, -0.015483448281884193, -0.12344938516616821, -0.15659482777118683, -0.03963925316929817, -0.11626488715410233, -0.20516499876976013, -0.026412105187773705, -0.010568642988801003, 0.042128510773181915, 0.03621247410774231, 0.020884418860077858], "variant_score": 0.039754848927259445}, {"variant_sequence": "AAGGTGCTGGCTTCCTAGTGCAGCTAGGAGGAAACTGAATTCTTTCTTGGCCTGGTTTTCTGTTGGGGGGATTCT", "score": 0.9521166086196899, "weights": [0.08043308556079865, 0.22452190518379211, 0.3963439464569092, 0.039774540811777115, 0.08947546035051346, 0.08459848910570145, 0.014658764936029911, 0.12492163479328156, 0.11233746260404587, -0.0373946949839592, -0.13504937291145325, -0.07589561492204666, -0.0009945383062586188, 0.017515556886792183, -0.044107504189014435, -0.029190901666879654, 0.09986960142850876, 0.08971813321113586, 0.12061380594968796, 0.06995625793933868, -0.05569956824183464, 0.058878012001514435, -0.023486929014325142, -0.11907519400119781, -0.018036462366580963, 0.11578632146120071, 0.07061806321144104, -0.06148582696914673, 0.040012601763010025, -0.07931503653526306, -0.27039578557014465, -0.1703202873468399, -0.0520019605755806, 0.07499285787343979, 0.041526518762111664, 0.11322871595621109, 0.11203786730766296, -0.051580462604761124, -0.03495354950428009, -0.06805245578289032, -0.007765935268253088, 0.03271138295531273, -0.0531783364713192, -0.012280227616429329, 0.04423699155449867, 0.14449791610240936, 0.05545380711555481, 0.16566970944404602, 0.19142818450927734, 0.052337948232889175, -0.03329529985785484, -0.038372673094272614, 0.07116485387086868, 0.055521782487630844, -0.09621279686689377, -0.07875785231590271, -0.015269630588591099, 0.03537146747112274, 0.09610790759325027, 0.21223708987236023, 0.11080548167228699, 0.14364507794380188, 0.10625872015953064, 0.23315228521823883, 0.2684657573699951, 0.1487327665090561, 0.05277564004063606, -0.041228532791137695, -0.14698930084705353, -0.24713820219039917, -0.028837356716394424, 0.069281205534935, 0.2136165201663971, 0.35712406039237976, 0.06386560201644897], "sequence": "AAGGTGCTGGCTTCCTAGTGCAGCTAGGAGGAAACTGGATTCTTTCTTGGCCTGGTTTTCTGTTGGGGGGATTCT", "variant_id": "rs1034435", "id": "rs1034435", "variant_weights": [0.09637351334095001, 0.25469639897346497, 0.4189365804195404, 0.06488394737243652, 0.10940384119749069, 0.10511808842420578, 0.028673555701971054, 0.12913356721401215, 0.11651979386806488, -0.034918028861284256, -0.13360275328159332, -0.07613470405340195, -0.0015867713373154402, 0.017145756632089615, -0.04458339139819145, -0.03005143068730831, 0.09914747625589371, 0.0887119248509407, 0.11949878185987473, 0.06889300793409348, -0.05675338953733444, 0.05776077136397362, -0.02503826841711998, -0.120646633207798, -0.020279379561543465, 0.11413761228322983, 0.06852744519710541, -0.06379950791597366, 0.03667578846216202, -0.0829848051071167, -0.2769967317581177, -0.18916906416416168, -0.08366433531045914, 0.03537075221538544, -0.014293779619038105, 0.034016143530607224, 0.051259223371744156, -0.05070510134100914, -0.028941556811332703, -0.07553818821907043, -0.0365682952105999, 0.014791795052587986, -0.060471612960100174, -0.01582067832350731, 0.04534666985273361, 0.14710718393325806, 0.06012426316738129, 0.17300568521022797, 0.20888519287109375, 0.07138066738843918, -0.020566102117300034, -0.0280266385525465, 0.07853769510984421, 0.06852356344461441, -0.08310648053884506, -0.07185734063386917, -0.009963298216462135, 0.03935781121253967, 0.0994630828499794, 0.21630291640758514, 0.11349274963140488, 0.14975190162658691, 0.11000478267669678, 0.23648761212825775, 0.2738514542579651, 0.15405111014842987, 0.057759691029787064, -0.03666181489825249, -0.1428622603416443, -0.2434498518705368, -0.026743071153759956, 0.07040342688560486, 0.21377649903297424, 0.35771048069000244, 0.06372404098510742], "variant_score": 0.9504022002220154}, {"variant_sequence": "ATCCCAGCTTACTCTGGAGCCCGAGGCAGGAGGATCCTTTGAGCCCAGGAAGTGGAGGTTGCAGTGAGCTGAGAT", "score": 0.5219306945800781, "weights": [0.09419064223766327, 0.08190539479255676, 0.05023970082402229, -0.020612746477127075, -0.07255272567272186, -0.11673526465892792, -0.04859180375933647, -0.2433089315891266, -0.14577454328536987, -0.05129002407193184, 0.05727310851216316, 0.13691936433315277, 0.08023275434970856, 0.18229949474334717, 0.19029806554317474, 0.19467629492282867, 0.06614667922258377, 0.1517537534236908, 0.09000395238399506, 0.012100661173462868, -0.021215680986642838, -0.021735994145274162, -0.07356054335832596, 0.045426320284605026, 0.015853531658649445, -0.1035320907831192, -0.1678636372089386, 0.04014304652810097, 0.0008493592031300068, -0.10104212164878845, 0.052550725638866425, -0.0343850776553154, -0.1665656864643097, -0.0451393686234951, 0.015554077923297882, 0.010655523277819157, -0.046074725687503815, -0.08101872354745865, -0.02874615602195263, 0.08622744679450989, 0.09017116576433182, 0.11894609779119492, 0.05212290957570076, -0.08438606560230255, -0.12667621672153473, -0.13723702728748322, -0.022573061287403107, -0.05270257592201233, -0.20900601148605347, -0.06650713831186295, 0.07856868207454681, 0.053521718829870224, 0.1431831419467926, 0.09526451677083969, -0.024727901443839073, 0.10632991045713425, 0.03275037556886673, -0.08980189263820648, -0.011150472797453403, 0.10516749322414398, 0.04287764057517052, -0.06953484565019608, 0.03951866924762726, -0.020838703960180283, 0.04291378706693649, -0.012568366713821888, 0.07267674803733826, -0.02603168971836567, -0.11209841817617416, -0.028142940253019333, -0.0750146135687828, 0.021141231060028076, 0.035768844187259674, 0.08069232851266861, -0.020392270758748055], "sequence": "ATCCCAGCTTACTCTGGAGCCCGAGGCAGGAGGATCCCTTGAGCCCAGGAAGTGGAGGTTGCAGTGAGCTGAGAT", "variant_id": "rs10406410", "id": "rs10406410", "variant_weights": [0.09375808387994766, 0.08133883029222488, 0.049081940203905106, -0.022046126425266266, -0.07475285977125168, -0.1262524276971817, -0.06093122810125351, -0.2603829503059387, -0.17839466035366058, -0.06980520486831665, 0.0549447201192379, 0.07539252936840057, 0.06921502202749252, 0.1217239573597908, 0.17524628341197968, 0.1693364530801773, 0.04320633411407471, 0.1386919468641281, 0.07317624986171722, 0.000560699263587594, -0.029753677546977997, -0.028595197945833206, -0.08211997151374817, 0.040053337812423706, 0.007383421063423157, -0.1122250109910965, -0.17501473426818848, 0.03404834121465683, -0.008107265457510948, -0.10995408892631531, 0.04531480744481087, -0.043750111013650894, -0.17509572207927704, -0.05214801803231239, 0.011725116521120071, 0.020062845200300217, -0.027037352323532104, -0.024332301691174507, 0.03798946738243103, 0.11992105096578598, 0.25918832421302795, 0.12153693288564682, 0.07602861523628235, -0.07732731103897095, -0.12135529518127441, -0.13471418619155884, -0.019194724038243294, -0.060139916837215424, -0.2193521410226822, -0.07105504721403122, 0.07372885942459106, 0.04436551779508591, 0.13719937205314636, 0.08675774931907654, -0.03290851414203644, 0.10156316310167313, 0.026325475424528122, -0.09567855298519135, -0.014605431817471981, 0.10236690193414688, 0.03893769904971123, -0.07203089445829391, 0.03796084225177765, -0.023396087810397148, 0.041344571858644485, -0.014752212911844254, 0.07140250504016876, -0.027814418077468872, -0.11316318809986115, -0.028819309547543526, -0.07623188942670822, 0.020551951602101326, 0.03480919823050499, 0.0802832618355751, -0.02060200646519661], "variant_score": 0.48317694664001465}, {"variant_sequence": "CCTGCAGGAGGAGCAGTTAAGTCAACAAGATAAGACCGAGGGTGTATCCTGCTGCCTAGCATAGCTCCTCCTCAG", "score": 0.06641461700201035, "weights": [-0.08033964037895203, -0.014959578402340412, 0.10328803956508636, -0.007928469218313694, -0.08700466901063919, 0.05954308062791824, -0.022837191820144653, -0.14692334830760956, 0.03265340253710747, -0.06941982358694077, -0.1823146492242813, -0.025627359747886658, -0.15358024835586548, -0.19640493392944336, -0.07420295476913452, -0.2047317922115326, -0.1810833215713501, -0.11766573041677475, -0.018614651635289192, 0.03910059481859207, -0.03561605513095856, -0.09533210098743439, -0.1647440493106842, -0.14798179268836975, -0.25733891129493713, -0.1971668004989624, -0.27400118112564087, -0.2310222089290619, -0.21362946927547455, -0.303205668926239, -0.1578332632780075, -0.04056485742330551, 0.032927002757787704, 0.046141527593135834, 0.05214528739452362, -0.016584383323788643, 0.022089095786213875, 0.014506871812045574, 0.09714525192975998, 0.046182431280612946, -0.025708019733428955, -0.1299237161874771, -0.005351384170353413, -0.05965530872344971, -0.06362175196409225, 0.04727907478809357, 0.08059711754322052, 0.17572133243083954, 0.14918062090873718, 0.10777761042118073, 0.11788229644298553, 0.007886027917265892, 0.0799485370516777, 0.04772287234663963, -0.10354677587747574, -0.15263837575912476, -0.10249723494052887, -0.008586767129600048, -0.10150884836912155, -0.23368310928344727, -0.14415407180786133, -0.06504277884960175, 0.0790678858757019, 0.023561762645840645, -0.08452034741640091, -0.03777698054909706, -0.01616078056395054, -0.04602084308862686, 0.015899617224931717, 0.06996103376150131, 0.0739874392747879, 0.19350220263004303, 0.1359930783510208, 0.37576553225517273, 0.12848447263240814], "sequence": "CCTGCAGGAGGAGCAGTTAAGTCAACAAGATAAGACCGAGGGTGTATCCTGCTGCCTAGCATAGCTCCTCCTCAG", "variant_id": "rs10421247", "id": "rs10421247", "variant_weights": [-0.08033964037895203, -0.014959578402340412, 0.10328803956508636, -0.007928469218313694, -0.08700466901063919, 0.05954308062791824, -0.022837191820144653, -0.14692334830760956, 0.03265340253710747, -0.06941982358694077, -0.1823146492242813, -0.025627359747886658, -0.15358024835586548, -0.19640493392944336, -0.07420295476913452, -0.2047317922115326, -0.1810833215713501, -0.11766573041677475, -0.018614651635289192, 0.03910059481859207, -0.03561605513095856, -0.09533210098743439, -0.1647440493106842, -0.14798179268836975, -0.25733891129493713, -0.1971668004989624, -0.27400118112564087, -0.2310222089290619, -0.21362946927547455, -0.303205668926239, -0.1578332632780075, -0.04056485742330551, 0.032927002757787704, 0.046141527593135834, 0.05214528739452362, -0.016584383323788643, 0.022089095786213875, 0.014506871812045574, 0.09714525192975998, 0.046182431280612946, -0.025708019733428955, -0.1299237161874771, -0.005351384170353413, -0.05965530872344971, -0.06362175196409225, 0.04727907478809357, 0.08059711754322052, 0.17572133243083954, 0.14918062090873718, 0.10777761042118073, 0.11788229644298553, 0.007886027917265892, 0.0799485370516777, 0.04772287234663963, -0.10354677587747574, -0.15263837575912476, -0.10249723494052887, -0.008586767129600048, -0.10150884836912155, -0.23368310928344727, -0.14415407180786133, -0.06504277884960175, 0.0790678858757019, 0.023561762645840645, -0.08452034741640091, -0.03777698054909706, -0.01616078056395054, -0.04602084308862686, 0.015899617224931717, 0.06996103376150131, 0.0739874392747879, 0.19350220263004303, 0.1359930783510208, 0.37576553225517273, 0.12848447263240814], "variant_score": 0.06641461700201035}, {"variant_sequence": "CTGAGGAGGAGCTATGCTAGGCAGCAGGATACACCCTCGGTCTTATCTTGTTGACTTAACTGCTCCTCCTGCAGG", "score": 0.1385447382926941, "weights": [-0.06769605726003647, 0.08675517141819, 0.05654596537351608, 0.07881961762905121, -0.017894063144922256, -0.14293859899044037, 0.01843186840415001, -0.07890722155570984, -0.1932356357574463, -0.03476371988654137, -0.17552608251571655, -0.23181231319904327, -0.13959179818630219, 0.022480934858322144, 0.09284918755292892, 0.07173892855644226, -0.05730434134602547, -0.010913453064858913, 0.12146876007318497, 0.06896781176328659, -0.09832727164030075, -0.16340403258800507, -0.011493180878460407, -0.11026938259601593, -0.1604800820350647, -0.003782423213124275, -0.10152625292539597, -0.26916077733039856, -0.1684754490852356, -0.14148642122745514, -0.06127097085118294, -0.09463513642549515, -0.03551246225833893, -0.030256329104304314, -0.06943291425704956, -0.0753169059753418, 0.021772198379039764, 0.08407355099916458, -0.0028780351858586073, -0.14031323790550232, -0.09806180000305176, -0.1112450510263443, -0.08826738595962524, -0.046980783343315125, 0.021846456453204155, 0.06135353446006775, 0.19311602413654327, 0.026908691972494125, 0.1229293942451477, 0.13972461223602295, 0.050400227308273315, 0.10729794949293137, 0.08249837905168533, 0.002787255449220538, -0.09221737086772919, -0.14171497523784637, -0.11688816547393799, 0.010178642347455025, 0.09331400692462921, 0.09361845999956131, 0.10036136955022812, 0.0901934951543808, -0.08453265577554703, -0.07488463073968887, -0.07516247034072876, -0.11541849374771118, -0.0658891573548317, -0.059238944202661514, -0.05590163171291351, 0.06532413512468338, 0.14940865337848663, -0.06844330579042435, 0.2310880422592163, 0.08297976851463318, -0.09321144223213196], "sequence": "CTGAGGAGGAGCTATGCTAGGCAGCAGGATACACCCTCGGTCTTATCTTGTTGACTTAACTGCTCCTCCTGCAGG", "variant_id": "rs10421247", "id": "rs10421247", "variant_weights": [-0.06769605726003647, 0.08675517141819, 0.05654596537351608, 0.07881961762905121, -0.017894063144922256, -0.14293859899044037, 0.01843186840415001, -0.07890722155570984, -0.1932356357574463, -0.03476371988654137, -0.17552608251571655, -0.23181231319904327, -0.13959179818630219, 0.022480934858322144, 0.09284918755292892, 0.07173892855644226, -0.05730434134602547, -0.010913453064858913, 0.12146876007318497, 0.06896781176328659, -0.09832727164030075, -0.16340403258800507, -0.011493180878460407, -0.11026938259601593, -0.1604800820350647, -0.003782423213124275, -0.10152625292539597, -0.26916077733039856, -0.1684754490852356, -0.14148642122745514, -0.06127097085118294, -0.09463513642549515, -0.03551246225833893, -0.030256329104304314, -0.06943291425704956, -0.0753169059753418, 0.021772198379039764, 0.08407355099916458, -0.0028780351858586073, -0.14031323790550232, -0.09806180000305176, -0.1112450510263443, -0.08826738595962524, -0.046980783343315125, 0.021846456453204155, 0.06135353446006775, 0.19311602413654327, 0.026908691972494125, 0.1229293942451477, 0.13972461223602295, 0.050400227308273315, 0.10729794949293137, 0.08249837905168533, 0.002787255449220538, -0.09221737086772919, -0.14171497523784637, -0.11688816547393799, 0.010178642347455025, 0.09331400692462921, 0.09361845999956131, 0.10036136955022812, 0.0901934951543808, -0.08453265577554703, -0.07488463073968887, -0.07516247034072876, -0.11541849374771118, -0.0658891573548317, -0.059238944202661514, -0.05590163171291351, 0.06532413512468338, 0.14940865337848663, -0.06844330579042435, 0.2310880422592163, 0.08297976851463318, -0.09321144223213196], "variant_score": 0.1385447382926941}, {"variant_sequence": "TCTCAAACTCCTGACCTCAGGTGATCCGGCTGCCTTGACATCCCAAAGTTCTGGGATTACAGGTGTGAGCCATCG", "score": 0.4552377462387085, "weights": [-0.037249304354190826, -0.09638392925262451, -0.04144112765789032, -0.17322631180286407, -0.24070966243743896, -0.20813587307929993, -0.18708790838718414, -0.07872164249420166, -0.050732649862766266, -0.03301746025681496, -0.06056662276387215, -0.0006227273843251169, -0.027159854769706726, -0.016589613631367683, -0.07672097533941269, -0.10916508734226227, -0.07504779100418091, -0.05589016526937485, 0.05290939658880234, 0.04038507118821144, -0.09228921681642532, -0.018676262348890305, -0.08358178287744522, -0.029497677460312843, -0.010052339173853397, 0.1021287590265274, 0.16328616440296173, 0.23684848845005035, 0.14290320873260498, -0.04592656344175339, 0.21530136466026306, 0.20977315306663513, -0.05995284393429756, -0.08165715634822845, 0.00671003432944417, 0.14283587038516998, 0.0929563045501709, -0.08881258219480515, -0.20222555100917816, -0.08490115404129028, -0.04974383860826492, -0.08657115697860718, -0.1883518099784851, -0.2707565128803253, -0.22806541621685028, -0.13406917452812195, -0.03831186518073082, -0.02120921202003956, -0.010488861240446568, 0.07260112464427948, 0.1721145510673523, 0.1592494547367096, 0.22975289821624756, -0.006033547222614288, -0.19216571748256683, -0.12729661166667938, -0.09439043700695038, -0.03829150274395943, 0.06122643128037453, 0.0468197762966156, 0.12143673747777939, 0.11893780529499054, -0.01741723157465458, 0.07997553050518036, 0.0456392876803875, 0.07828398793935776, 0.049289677292108536, 0.10874246060848236, 0.018356915563344955, -0.04181859642267227, -0.031081123277544975, 0.29758352041244507, 0.30703866481781006, 0.281423956155777, 0.10806410014629364], "sequence": "TCTCAAACTCCTGACCTCAGGTGATCCGGCTGCCTTGGCATCCCAAAGTTCTGGGATTACAGGTGTGAGCCATCG", "variant_id": "rs10446472", "id": "rs10446472", "variant_weights": [-0.03722834587097168, -0.09640426188707352, -0.04140838608145714, -0.1731783151626587, -0.24063801765441895, -0.2080637663602829, -0.1870214194059372, -0.0786428153514862, -0.05052165687084198, -0.032861799001693726, -0.06039104983210564, -0.0003250155714340508, -0.026937369257211685, -0.01632586680352688, -0.07637827098369598, -0.10881035774946213, -0.07449809461832047, -0.055489327758550644, 0.05338236317038536, 0.04105590283870697, -0.091493621468544, -0.017589880153536797, -0.0825170949101448, -0.02821456454694271, -0.007690039463341236, 0.10422831773757935, 0.1654442697763443, 0.23920230567455292, 0.14461655914783478, -0.04401400312781334, 0.21958397328853607, 0.20356091856956482, -0.07977930456399918, -0.11510239541530609, -0.059480179101228714, 0.030332373455166817, -0.047600969672203064, -0.057143405079841614, -0.13008557260036469, -0.062064170837402344, -0.041422612965106964, -0.07379228621721268, -0.1784520447254181, -0.2626343369483948, -0.22726699709892273, -0.1343352049589157, -0.03870873898267746, -0.017563553526997566, -0.009529945440590382, 0.07347632944583893, 0.1733364313840866, 0.16015227138996124, 0.23239237070083618, -0.0028515621088445187, -0.18890967965126038, -0.12539313733577728, -0.09266803413629532, -0.036951132118701935, 0.06231185421347618, 0.048038557171821594, 0.12216420471668243, 0.12053816765546799, -0.015784572809934616, 0.0807817354798317, 0.04690472036600113, 0.07902656495571136, 0.050351954996585846, 0.10935743898153305, 0.019238248467445374, -0.04125990346074104, -0.030664874240756035, 0.29775309562683105, 0.30708765983581543, 0.28157901763916016, 0.10835657268762589], "variant_score": 0.41779449582099915}, {"variant_sequence": "CACTGACAAAGTTTAGGGTGGGGACAGCAAAGTTGAAAGCAGTGTTTAGAGATATGGAGGAGAACCTTGCAGAGG", "score": 0.05823121219873428, "weights": [-0.14483268558979034, -0.007493559271097183, -0.07072672247886658, -0.030993148684501648, -0.18645864725112915, -0.19814546406269073, -0.2694509029388428, -0.188900426030159, -0.11242446303367615, -0.0329744853079319, -0.1246442049741745, -0.10883750766515732, -0.04617549479007721, 0.04402356222271919, 0.19226326048374176, 0.23590873181819916, 0.11028122901916504, 0.004122245591133833, 0.16351620852947235, 0.1245804876089096, 0.00115324673242867, -0.12857693433761597, -0.26555219292640686, -0.1000082865357399, -0.15869280695915222, -0.0571889691054821, -0.20688584446907043, -0.3287237286567688, -0.19759351015090942, -0.09120762348175049, -0.00040618213824927807, -0.05893998593091965, -0.03266387805342674, 0.04644286260008812, -0.028117483481764793, 0.047585923224687576, 0.14252154529094696, 0.06958786398172379, -0.08929295092821121, -0.1543099731206894, 0.024792755022644997, -0.023284656926989555, 0.0649031475186348, 0.12276319414377213, 0.0015613185241818428, 0.012696675024926662, -0.007760256994515657, -0.037285830825567245, -0.032406698912382126, -0.09945471584796906, -0.21707740426063538, -0.18304196000099182, -0.07987470924854279, 0.07205723971128464, 0.176045224070549, 0.1469542384147644, 0.009167112410068512, 0.09522069990634918, -0.004359272308647633, -0.1522897332906723, -0.05847842991352081, -0.1970302164554596, -0.066078782081604, 0.017948918044567108, -0.03281288594007492, -0.07200183719396591, -0.03251052275300026, 0.0740031823515892, 0.017175715416669846, -0.10748566687107086, 0.027441177517175674, 0.01791549101471901, 0.1409100592136383, 0.0029339268803596497, -0.16636383533477783], "sequence": "CACTGACAAAGTTTAGGGTGGGGACAGCAAAGTTGAAGGCAGTGTTTAGAGATATGGAGGAGAACCTTGCAGAGG", "variant_id": "rs10490031", "id": "rs10490031", "variant_weights": [-0.1443893164396286, -0.006802728399634361, -0.06944704055786133, -0.028876861557364464, -0.18500126898288727, -0.19669386744499207, -0.2677442133426666, -0.18727166950702667, -0.11090970039367676, -0.03177632763981819, -0.12412689626216888, -0.10573448240756989, -0.04517180472612381, 0.04135437309741974, 0.18260979652404785, 0.21126213669776917, 0.07954619079828262, -0.026545077562332153, 0.1411762535572052, 0.09988853335380554, -0.004826568998396397, -0.13159984350204468, -0.26698923110961914, -0.10236281901597977, -0.1605939418077469, -0.05820764973759651, -0.20621098577976227, -0.327250212430954, -0.18910861015319824, -0.07525690644979477, 0.02678360603749752, 0.003447686554864049, -0.013165192678570747, 0.0605434849858284, -0.0006056178826838732, -0.006512074265629053, 0.0693516731262207, 0.1352797895669937, 0.05691403150558472, -0.08255724608898163, 0.06061766296625137, 0.01206384040415287, 0.0798167809844017, 0.13948537409305573, 0.008817877620458603, 0.016913501545786858, -0.005984050687402487, -0.03592788800597191, -0.0277444738894701, -0.09803436696529388, -0.21336819231510162, -0.1820020228624344, -0.07919741421937943, 0.07308636605739594, 0.17725269496440887, 0.1490989476442337, 0.011349226348102093, 0.09654272347688675, -0.0024529783986508846, -0.15050949156284332, -0.05746899172663689, -0.19563771784305573, -0.06525817513465881, 0.018634675070643425, -0.03218035027384758, -0.07151695340871811, -0.03213392570614815, 0.0743536427617073, 0.017786899581551552, -0.107105553150177, 0.027672572061419487, 0.018364254385232925, 0.14114198088645935, 0.0033181083854287863, -0.1660032719373703], "variant_score": 0.07989390194416046}, {"variant_sequence": "TTCAGGCACTTAGCAGACAAGATGATCCTCTCAGTCATTAAACAGTTAGGGCCCAGGCTCTGTTCTGGGCTTTGT", "score": 0.022002052515745163, "weights": [-0.003263607155531645, 0.04459536820650101, 0.058371320366859436, 0.08401768654584885, 0.060804709792137146, -0.14795374870300293, -0.247584730386734, -0.10985812544822693, -0.14825047552585602, -0.11589725315570831, -0.02144535444676876, 0.07505707442760468, 0.014230486005544662, -0.10079286247491837, -0.03941268101334572, -0.13200849294662476, -0.24313735961914062, -0.23681892454624176, -0.22181354463100433, -0.15667200088500977, -0.10750159621238708, -0.12246979027986526, -0.008520260453224182, -0.05953419581055641, -0.024200789630413055, 0.007958858273923397, 0.0012910254299640656, -0.06683170795440674, -0.06295013427734375, -0.0670507475733757, -0.07282041758298874, -0.06046518683433533, -0.01651899889111519, -0.06434798240661621, -0.0746239572763443, -0.10262354463338852, -0.06305504590272903, -0.1727568656206131, -0.21565879881381989, -0.12810173630714417, -0.08303066343069077, -0.025606639683246613, -0.05057715252041817, -0.024520717561244965, -0.10130978375673294, -0.09632886201143265, 0.00899486057460308, 0.17166772484779358, 0.1609037220478058, 0.041233595460653305, -0.10336153954267502, -0.18549485504627228, -0.19745610654354095, -0.19030100107192993, -0.030449481680989265, -0.05500754714012146, -0.18923340737819672, -0.2551172971725464, -0.11367873102426529, -0.062089238315820694, 0.004708923399448395, -0.003451765049248934, -0.03170332685112953, 0.055841654539108276, 0.1341072916984558, 0.14632275700569153, 0.1849830597639084, 0.049962546676397324, -0.0741996094584465, -0.1372433602809906, -0.07419072836637497, 0.018679091706871986, 0.12411002814769745, 0.25819826126098633, -0.001119215041399002], "sequence": "TTCAGGCACTTAGCAGACAAGATGATCCTCTCAGTCAGTAAACAGTTAGGGCCCAGGCTCTGTTCTGGGCTTTGT", "variant_id": "rs10498633", "id": "rs10498633", "variant_weights": [-0.003319866955280304, 0.04453572630882263, 0.05835522338747978, 0.08388058841228485, 0.060592543333768845, -0.14821988344192505, -0.24791845679283142, -0.11021113395690918, -0.14867515861988068, -0.11648499965667725, -0.021974755451083183, 0.07470781356096268, 0.013751307502388954, -0.1013161689043045, -0.03994304686784744, -0.1326179802417755, -0.24342818558216095, -0.2371598780155182, -0.22223825752735138, -0.15728497505187988, -0.10806798189878464, -0.12366378307342529, -0.010509476065635681, -0.061647895723581314, -0.026969432830810547, 0.0041868980042636395, -0.0016016942681744695, -0.07005718350410461, -0.06716395914554596, -0.06898146122694016, -0.07683946937322617, -0.07078815996646881, -0.04865863546729088, -0.11149892956018448, -0.14809037744998932, -0.19799189269542694, -0.19897553324699402, -0.1834636777639389, -0.16702423989772797, -0.13175436854362488, -0.10450711101293564, -0.0579744353890419, -0.05674871429800987, -0.0381995365023613, -0.10502098500728607, -0.1000390276312828, 0.0047054598107934, 0.16706903278827667, 0.15409380197525024, 0.034636709839105606, -0.10955005884170532, -0.189019575715065, -0.20009368658065796, -0.19238385558128357, -0.03155061975121498, -0.05823385715484619, -0.1927298754453659, -0.25708210468292236, -0.11516665667295456, -0.06365366280078888, 0.0035841651260852814, -0.005566486623138189, -0.03286893293261528, 0.054855648428201675, 0.1330162137746811, 0.14549240469932556, 0.18353892862796783, 0.048485539853572845, -0.07561254501342773, -0.13813039660453796, -0.07450277358293533, 0.018475545570254326, 0.12408605962991714, 0.25768792629241943, -0.001189932692795992], "variant_score": 0.012937183491885662}, {"variant_sequence": "TTCAGGCACTTAGCAGACAAGATGATCCTCTCAGTCAGTAAACAGTTAGGGCCCAGGCTCTGTTCTGGGCTTTGT", "score": 0.022002052515745163, "weights": [-0.003263607155531645, 0.04459536820650101, 0.058371320366859436, 0.08401768654584885, 0.060804709792137146, -0.14795374870300293, -0.247584730386734, -0.10985812544822693, -0.14825047552585602, -0.11589725315570831, -0.02144535444676876, 0.07505707442760468, 0.014230486005544662, -0.10079286247491837, -0.03941268101334572, -0.13200849294662476, -0.24313735961914062, -0.23681892454624176, -0.22181354463100433, -0.15667200088500977, -0.10750159621238708, -0.12246979027986526, -0.008520260453224182, -0.05953419581055641, -0.024200789630413055, 0.007958858273923397, 0.0012910254299640656, -0.06683170795440674, -0.06295013427734375, -0.0670507475733757, -0.07282041758298874, -0.06046518683433533, -0.01651899889111519, -0.06434798240661621, -0.0746239572763443, -0.10262354463338852, -0.06305504590272903, -0.1727568656206131, -0.21565879881381989, -0.12810173630714417, -0.08303066343069077, -0.025606639683246613, -0.05057715252041817, -0.024520717561244965, -0.10130978375673294, -0.09632886201143265, 0.00899486057460308, 0.17166772484779358, 0.1609037220478058, 0.041233595460653305, -0.10336153954267502, -0.18549485504627228, -0.19745610654354095, -0.19030100107192993, -0.030449481680989265, -0.05500754714012146, -0.18923340737819672, -0.2551172971725464, -0.11367873102426529, -0.062089238315820694, 0.004708923399448395, -0.003451765049248934, -0.03170332685112953, 0.055841654539108276, 0.1341072916984558, 0.14632275700569153, 0.1849830597639084, 0.049962546676397324, -0.0741996094584465, -0.1372433602809906, -0.07419072836637497, 0.018679091706871986, 0.12411002814769745, 0.25819826126098633, -0.001119215041399002], "sequence": "TTCAGGCACTTAGCAGACAAGATGATCCTCTCAGTCAGTAAACAGTTAGGGCCCAGGCTCTGTTCTGGGCTTTGT", "variant_id": "rs10498633", "id": "rs10498633", "variant_weights": [-0.003263607155531645, 0.04459536820650101, 0.058371320366859436, 0.08401768654584885, 0.060804709792137146, -0.14795374870300293, -0.247584730386734, -0.10985812544822693, -0.14825047552585602, -0.11589725315570831, -0.02144535444676876, 0.07505707442760468, 0.014230486005544662, -0.10079286247491837, -0.03941268101334572, -0.13200849294662476, -0.24313735961914062, -0.23681892454624176, -0.22181354463100433, -0.15667200088500977, -0.10750159621238708, -0.12246979027986526, -0.008520260453224182, -0.05953419581055641, -0.024200789630413055, 0.007958858273923397, 0.0012910254299640656, -0.06683170795440674, -0.06295013427734375, -0.0670507475733757, -0.07282041758298874, -0.06046518683433533, -0.01651899889111519, -0.06434798240661621, -0.0746239572763443, -0.10262354463338852, -0.06305504590272903, -0.1727568656206131, -0.21565879881381989, -0.12810173630714417, -0.08303066343069077, -0.025606639683246613, -0.05057715252041817, -0.024520717561244965, -0.10130978375673294, -0.09632886201143265, 0.00899486057460308, 0.17166772484779358, 0.1609037220478058, 0.041233595460653305, -0.10336153954267502, -0.18549485504627228, -0.19745610654354095, -0.19030100107192993, -0.030449481680989265, -0.05500754714012146, -0.18923340737819672, -0.2551172971725464, -0.11367873102426529, -0.062089238315820694, 0.004708923399448395, -0.003451765049248934, -0.03170332685112953, 0.055841654539108276, 0.1341072916984558, 0.14632275700569153, 0.1849830597639084, 0.049962546676397324, -0.0741996094584465, -0.1372433602809906, -0.07419072836637497, 0.018679091706871986, 0.12411002814769745, 0.25819826126098633, -0.001119215041399002], "variant_score": 0.022002052515745163}, {"variant_sequence": "GCATCTATCGAGTTTGCAATGTCACAACCTCTCTGATGTTGTGCTCAGCATGATTCTTTAATAGAAGTTTTATTT", "score": 0.03481215238571167, "weights": [-0.20080292224884033, -0.24540136754512787, -0.16394157707691193, -0.1587325781583786, -0.16159147024154663, -0.1600031554698944, -0.03270340710878372, 0.009741581045091152, 0.055828776210546494, -0.07840022444725037, -0.01413921732455492, -0.1429024487733841, -0.0946386456489563, -0.019996576011180878, 0.05540024861693382, -0.0216818917542696, -0.18869805335998535, -0.10750655829906464, -0.02131839096546173, 0.04342282935976982, -0.018252281472086906, -0.09401995688676834, -0.14883354306221008, -0.2005617469549179, -0.19980861246585846, -0.18195128440856934, -0.14003227651119232, -0.09935276955366135, -0.12652412056922913, -0.09676120430231094, -0.06715560704469681, -0.05876932665705681, -0.02997848205268383, -0.009199343621730804, -0.041275523602962494, -0.052936721593141556, -0.026367533951997757, -0.004914532881230116, 0.003746244590729475, 0.12096448987722397, 0.1374744474887848, 0.11392173916101456, 0.07300563156604767, -0.11095330864191055, -0.1193392276763916, -0.04281333461403847, 0.08848609775304794, 0.05982552096247673, -0.16065211594104767, 0.07131271064281464, 0.10994868725538254, 0.1616310477256775, 0.008923913352191448, -0.022052723914384842, 0.0022769076749682426, 0.01828945428133011, -0.10462591797113419, -0.12428993731737137, -0.13637347519397736, -0.11743862181901932, -0.09961257129907608, -0.07745714485645294, -0.021816693246364594, -0.08229274302721024, -0.04491591453552246, 0.03144384175539017, -0.04349025711417198, -0.05456360802054405, -0.027272038161754608, -0.01116848923265934, -0.0034172157756984234, 0.04524867981672287, 0.11645154654979706, 0.10858775675296783, 0.05541027709841728], "sequence": "GCATCTATCGAGTTTGCAATGTCACAACCTCTCTGATCTTGTGCTCAGCATGATTCTTTAATAGAAGTTTTATTT", "variant_id": "rs1065712", "id": "rs1065712", "variant_weights": [-0.20075273513793945, -0.24535229802131653, -0.16383861005306244, -0.15859684348106384, -0.1614854633808136, -0.159854456782341, -0.032596152275800705, 0.009887414053082466, 0.05593053624033928, -0.0782356858253479, -0.013934517279267311, -0.1426316350698471, -0.09427156299352646, -0.019635571166872978, 0.0557277537882328, -0.02139749564230442, -0.1883837878704071, -0.1071154847741127, -0.02086951583623886, 0.04406626895070076, -0.01764061115682125, -0.09333222359418869, -0.1484675407409668, -0.2002994567155838, -0.19941741228103638, -0.18178828060626984, -0.1401500254869461, -0.09942616522312164, -0.1267029345035553, -0.09633402526378632, -0.06406185775995255, -0.052236780524253845, -0.026467662304639816, -4.5848777517676353e-05, -0.016049295663833618, 0.01414787769317627, 0.0802694782614708, 0.06949865072965622, 0.04041323438286781, 0.14319200813770294, 0.16072431206703186, 0.12087441235780716, 0.07183850556612015, -0.11062192171812057, -0.11840032786130905, -0.04427846521139145, 0.08847134560346603, 0.055938445031642914, -0.16444489359855652, 0.06978652626276016, 0.10887279361486435, 0.15780289471149445, 0.007002417463809252, -0.023786092177033424, 0.0006966115906834602, 0.01638196036219597, -0.10582469403743744, -0.12526507675647736, -0.137310191988945, -0.11820909380912781, -0.1003570482134819, -0.0782843679189682, -0.022593123838305473, -0.08404132723808289, -0.045853693038225174, 0.030627259984612465, -0.044862546026706696, -0.05503084138035774, -0.027507733553647995, -0.011264863424003124, -0.0033848443999886513, 0.04529140517115593, 0.11651459336280823, 0.10865899175405502, 0.05547628924250603], "variant_score": 0.0490509457886219}, {"variant_sequence": "GTAGTAATACCTGACCTTTTATTTTTTATCTATTTATTTTTGAGATGGAGTCTCGCTCTGTCACCCAGGCTGGAG", "score": 0.017047474160790443, "weights": [-0.18910501897335052, -0.10924326628446579, -0.07232575863599777, -0.2712422013282776, -0.26596125960350037, -0.15030263364315033, -0.11149769276380539, -0.104481540620327, -0.003569681430235505, -0.026868745684623718, -0.061645735055208206, -0.04690808057785034, -0.09804520756006241, -0.07106880098581314, -0.13776551187038422, -0.16911093890666962, -0.1873144954442978, -0.1148233413696289, -0.06796577572822571, -0.03218237683176994, 0.06482204049825668, 0.03555665537714958, 0.029344530776143074, 0.01866036094725132, 0.0014565077144652605, -0.028673822060227394, -0.05985035374760628, -0.03794557973742485, -0.04808009788393974, -0.024939775466918945, -0.13361425697803497, -0.08238059282302856, -0.08110062032938004, -0.07535582035779953, -0.07877207547426224, -0.06923282891511917, -0.05961630120873451, -0.022212939336895943, -0.0017820540815591812, 0.03174547851085663, 0.0834851786494255, 0.01732517220079899, 0.0041532074101269245, -0.1273081749677658, 0.0017886932473629713, 0.09038378298282623, 0.008625410497188568, -0.13911248743534088, -0.0031296112574636936, -0.13689672946929932, -0.05591820180416107, -0.040995147079229355, 0.02351503074169159, 0.05268837511539459, -0.07284627109766006, -0.14203070104122162, -0.07080192863941193, -0.04022887721657753, 0.01521396916359663, -0.030399618670344353, -0.07021059840917587, -0.08284223824739456, -0.047794997692108154, -0.14132222533226013, -0.1620645523071289, -0.16221283376216888, -0.044863540679216385, 0.012202282436192036, -0.15868863463401794, -0.3034013509750366, 0.06057838350534439, 0.18687860667705536, 0.06206800043582916, 0.2874617576599121, -0.014458178542554379], "sequence": "GTAGTAATACCTGACCTTTTATTTTTTATCTATTTATATTTGAGATGGAGTCTCGCTCTGTCACCCAGGCTGGAG", "variant_id": "rs10751667", "id": "rs10751667", "variant_weights": [-0.18983684480190277, -0.11038249731063843, -0.07342927902936935, -0.27268972992897034, -0.26793935894966125, -0.15176375210285187, -0.11318457126617432, -0.10677112638950348, -0.005101327784359455, -0.0289751049131155, -0.06408927589654922, -0.05138520151376724, -0.10193043947219849, -0.07610330730676651, -0.1436527818441391, -0.1764107644557953, -0.19954466819763184, -0.1263904720544815, -0.07927171885967255, -0.04289974272251129, 0.05590805783867836, 0.026139771565794945, 0.020122304558753967, 0.009836623445153236, -0.007346648722887039, -0.0375204011797905, -0.07088775932788849, -0.046933915466070175, -0.061654143035411835, -0.03562895953655243, -0.1492617428302765, -0.08741436898708344, -0.0849815383553505, -0.06597676873207092, -0.05458227917551994, 0.0014330600388348103, -0.0007009868277236819, 0.011064466089010239, 0.024696601554751396, 0.04792376607656479, 0.09221731871366501, 0.060500551015138626, 0.010948032140731812, -0.1246732622385025, 0.0033063762821257114, 0.08941904455423355, 0.0047387355007231236, -0.14366690814495087, -0.005771809723228216, -0.14172008633613586, -0.05899985507130623, -0.04367176815867424, 0.021416446194052696, 0.05064079910516739, -0.07598534226417542, -0.14383722841739655, -0.07218708097934723, -0.041730429977178574, 0.014120040461421013, -0.03269229829311371, -0.07154442369937897, -0.08417835831642151, -0.04868732765316963, -0.14210575819015503, -0.16294768452644348, -0.16300757229328156, -0.04489106684923172, 0.010703557170927525, -0.16050976514816284, -0.30435478687286377, 0.05993674695491791, 0.18567727506160736, 0.06091362237930298, 0.28685852885246277, -0.015393284149467945], "variant_score": 0.017659297212958336}, {"variant_sequence": "AGTGTGTTGGCAGGCACCTGTAGTCCCAGCTACTTGGTAGACTGAGCCCAGGAGTTTGAGGCTATAGTGAGCTTT", "score": 0.6805112957954407, "weights": [0.17254148423671722, 0.32752716541290283, 0.19212490320205688, 0.14168722927570343, 0.1286599487066269, 0.14581501483917236, 0.10385093092918396, 0.21673691272735596, 0.21115432679653168, 0.02521415241062641, -0.07762407511472702, 0.07077417522668839, 0.006737071089446545, -0.14862459897994995, -0.2310066670179367, -0.05696461722254753, -0.08010712265968323, -0.09228435903787613, -0.018200501799583435, -0.06162966042757034, -0.053343307226896286, 0.0876677930355072, 0.041738204658031464, 0.019512340426445007, -0.05661553144454956, -0.10855622589588165, -0.14942684769630432, -0.15203902125358582, -0.14163704216480255, -0.3069538474082947, -0.17487317323684692, -0.017981480807065964, 0.002271209843456745, 0.07224491983652115, 0.21467772126197815, 0.24656638503074646, 0.16160200536251068, 0.020982280373573303, 0.09704425185918808, 0.008186825551092625, 0.07983853667974472, 0.0022304565645754337, 0.10328024625778198, 0.09476751834154129, 0.11101368814706802, 0.018691567704081535, -0.10039792954921722, -0.13267675042152405, -0.13925135135650635, -0.003986014518886805, -0.028067268431186676, -0.15483346581459045, -0.03035765141248703, -0.1102394238114357, -0.06050991266965866, 0.026172468438744545, 0.12014970928430557, 0.1389133185148239, 0.13005101680755615, 0.05317140370607376, -0.13089874386787415, -0.26162973046302795, -0.21758989989757538, -0.09672176837921143, -0.04344678297638893, 0.08552956581115723, 0.053094763308763504, 0.05029083415865898, 0.01710636354982853, 0.11002516001462936, 0.050128497183322906, 0.023270655423402786, 0.07065236568450928, 0.0909244567155838, 0.04997754842042923], "sequence": "AGTGTGTTGGCAGGCACCTGTAGTCCCAGCTACTTGGGAGACTGAGCCCAGGAGTTTGAGGCTATAGTGAGCTTT", "variant_id": "rs10808026", "id": "rs10808026", "variant_weights": [0.17251358926296234, 0.32749542593955994, 0.19206306338310242, 0.14155273139476776, 0.1284910887479782, 0.1456487774848938, 0.10365013033151627, 0.2165360003709793, 0.21097730100154877, 0.025010786950588226, -0.07785981148481369, 0.07052137702703476, 0.006379871629178524, -0.14907734096050262, -0.23154973983764648, -0.05750078335404396, -0.08076716214418411, -0.09301398694515228, -0.019281988963484764, -0.06262444704771042, -0.05468880757689476, 0.08646499365568161, 0.039978768676519394, 0.017619535326957703, -0.05751924216747284, -0.10939797759056091, -0.15053528547286987, -0.15327416360378265, -0.142565056681633, -0.3074800968170166, -0.17666035890579224, -0.01528980303555727, 0.010288595221936703, 0.06499411165714264, 0.18896439671516418, 0.19202151894569397, 0.06472758948802948, 0.018523098900914192, 0.15041139721870422, 0.0964362844824791, 0.1107020452618599, 0.037577688694000244, 0.12196363508701324, 0.12053022533655167, 0.12061906605958939, 0.02692234143614769, -0.09541362524032593, -0.1295177936553955, -0.13721990585327148, -0.0031475024297833443, -0.026575058698654175, -0.1534118354320526, -0.02968404069542885, -0.10926607996225357, -0.05996440723538399, 0.026593143120408058, 0.12050085514783859, 0.1395145207643509, 0.13038398325443268, 0.05368970334529877, -0.13041026890277863, -0.2613399624824524, -0.21739639341831207, -0.09656918048858643, -0.043296415358781815, 0.08565850555896759, 0.053322840481996536, 0.050432804971933365, 0.017305707558989525, 0.11014280468225479, 0.05029125511646271, 0.023372134193778038, 0.07066875696182251, 0.0909217894077301, 0.049966782331466675], "variant_score": 0.7005781531333923}, {"variant_sequence": "TCTCGCCTTGTCGCCCACGATGGAGTACAGTGGTGCAGTGTTGGCTCACTGCAACCTCCGCCTCCCGGGTTCAAG", "score": 0.4777721166610718, "weights": [0.02146909199655056, 0.04131118953227997, 0.14820386469364166, 0.12166381627321243, 0.016284167766571045, -0.08553075045347214, -0.10571892559528351, -0.026523936539888382, 0.10424099862575531, 0.12166428565979004, 0.13248533010482788, 0.15699611604213715, 0.06179775670170784, -0.06311977654695511, -0.12455502152442932, -0.1519373506307602, -0.04979292303323746, -0.025479862466454506, -0.08347471058368683, 0.004680749960243702, 0.14886745810508728, 0.11495980620384216, -0.0322142131626606, 0.027114270254969597, -0.10533251613378525, -0.0835704356431961, 0.03149794414639473, -0.005632735788822174, 0.09131905436515808, 0.07912857085466385, 0.148421972990036, 0.11118713766336441, -0.023491963744163513, 0.027682829648256302, -0.09195436537265778, -0.2376760095357895, -0.10838790982961655, -0.0002148680796381086, 0.08439388871192932, 0.08039036393165588, 0.07087159901857376, 0.186374232172966, 0.17851130664348602, -0.009925387799739838, -0.13531111180782318, -0.10485026240348816, -0.11065547168254852, -0.009841587394475937, -0.03313922882080078, 0.01059539895504713, -0.06877574324607849, -0.22037558257579803, -0.08522917330265045, -0.008142695762217045, -0.05951867997646332, -0.11494080722332001, -0.10079263150691986, -0.03708799555897713, -0.002252668607980013, 0.024735845625400543, -0.230006605386734, -0.19969391822814941, -0.0253358893096447, -0.010138199664652348, -0.011724168434739113, 0.01585162617266178, 0.01253158412873745, -0.04405234754085541, -0.11429466307163239, -0.02403123304247856, 0.029766421765089035, 0.02011791616678238, 0.25367438793182373, 0.27307742834091187, 0.12388576567173004], "sequence": "TCTCGCCTTGTCGCCCACGATGGAGTACAGTGGTGCAATGTTGGCTCACTGCAACCTCCGCCTCCCGGGTTCAAG", "variant_id": "rs10838725", "id": "rs10838725", "variant_weights": [0.0214372668415308, 0.04129591956734657, 0.14813481271266937, 0.1215585470199585, 0.016153085976839066, -0.08568356186151505, -0.10588619858026505, -0.026782318949699402, 0.10399424284696579, 0.12142820656299591, 0.13218271732330322, 0.156719371676445, 0.06145647540688515, -0.06350895762443542, -0.12490934133529663, -0.15229982137680054, -0.050108782947063446, -0.025893375277519226, -0.08399402350187302, 0.004069003276526928, 0.1478862464427948, 0.11414949595928192, -0.03316890448331833, 0.026025760918855667, -0.10682510584592819, -0.08552464097738266, 0.030166033655405045, -0.007355507463216782, 0.08988117426633835, 0.07748854160308838, 0.14727461338043213, 0.11589100956916809, -0.007929998449981213, 0.06279671937227249, -0.014532405883073807, -0.10924385488033295, 0.025263113901019096, -0.02263934537768364, 0.05192548409104347, 0.030802998691797256, 0.054665081202983856, 0.17880061268806458, 0.171950563788414, -0.014430221170186996, -0.13851533830165863, -0.10499797016382217, -0.11084248870611191, -0.009152324870228767, -0.03255961090326309, 0.01134728454053402, -0.06732554733753204, -0.21954068541526794, -0.08462516963481903, -0.0075555238872766495, -0.058893777430057526, -0.11442846804857254, -0.10054594278335571, -0.03641371428966522, -0.001557037467136979, 0.025538915768265724, -0.2293051779270172, -0.19902963936328888, -0.024998923763632774, -0.009582927450537682, -0.01139900740236044, 0.016120634973049164, 0.012946287170052528, -0.04360993206501007, -0.11385133117437363, -0.023826926946640015, 0.029855523258447647, 0.020201735198497772, 0.25364232063293457, 0.2730308771133423, 0.12409058958292007], "variant_score": 0.5391440987586975}, {"variant_sequence": "TGTGGGGAATCAGTACAGTGGAGACTTTGAGGGGCTGCGTAGGATTCTGACCCACATCTCTGCCCCCCACTTCCA", "score": 0.20800995826721191, "weights": [0.14666135609149933, 0.231779083609581, 0.22671069204807281, 0.18583428859710693, 0.06004825606942177, -0.11375304311513901, -0.2892601788043976, -0.1549767702817917, -0.07656630873680115, -0.040774181485176086, -0.062287669628858566, -0.02930392511188984, -0.12490194290876389, -0.11473003774881363, -0.01986503414809704, -0.03588758409023285, 0.06644629687070847, 0.0461266003549099, 0.12235477566719055, 0.05167368799448013, -0.09486213326454163, 0.00386215653270483, -0.10371841490268707, 0.01810470223426819, -0.04167735204100609, -0.014137936756014824, 0.04599539563059807, 0.13008315861225128, 0.2560727894306183, 0.1717384308576584, 0.17380927503108978, 0.08404960483312607, -0.020793214440345764, -0.11837182193994522, -0.13547679781913757, 0.025892194360494614, 0.010205435566604137, 0.053623758256435394, 0.00832673255354166, 0.006025596987456083, 0.12805838882923126, 0.0650986060500145, -0.12617719173431396, -0.05755152180790901, -0.03749626874923706, 0.013340990990400314, 0.07771626114845276, 0.11345212161540985, 0.1265518218278885, 0.0032899477519094944, -0.15273743867874146, -0.20352211594581604, -0.24304580688476562, -0.27633658051490784, -0.25056350231170654, -0.25478848814964294, -0.1394137293100357, -0.10105808079242706, -0.04140132665634155, 0.015963949263095856, 0.09022537618875504, 0.11572089791297913, -0.020009754225611687, -0.06562294065952301, -0.09951745718717575, -0.14063841104507446, -0.18125854432582855, -0.2072867453098297, -0.14541642367839813, -0.10041070729494095, -0.03999710455536842, 0.04383176565170288, 0.08415759354829788, 0.022309787571430206, 0.11348991841077805], "sequence": "TGTGGGGAATCAGTACAGTGGAGACTTTGAGGGGCTGTGTAGGATTCTGACCCACATCTCTGCCCCCCACTTCCA", "variant_id": "rs10854166", "id": "rs10854166", "variant_weights": [0.14668765664100647, 0.23179863393306732, 0.22674265503883362, 0.18588383495807648, 0.06010320782661438, -0.11368764936923981, -0.28917866945266724, -0.15488362312316895, -0.07646740972995758, -0.0406443253159523, -0.06219160929322243, -0.029191387817263603, -0.12475070357322693, -0.11452561616897583, -0.019744642078876495, -0.0357293076813221, 0.06663662940263748, 0.04640329256653786, 0.12271261215209961, 0.051969967782497406, -0.094520702958107, 0.0042794933542609215, -0.1031806692481041, 0.018676361069083214, -0.041058510541915894, -0.013280810788273811, 0.04687819257378578, 0.13092824816703796, 0.2570154368877411, 0.17252510786056519, 0.175367072224617, 0.0863506942987442, -0.016714606434106827, -0.11126211285591125, -0.12545934319496155, 0.04847026988863945, 0.030202951282262802, -0.028501445427536964, -0.1432090550661087, -0.06165450066328049, 0.08691205084323883, 0.014296512119472027, -0.15140080451965332, -0.07107047736644745, -0.044246379286050797, 0.01000684779137373, 0.07456278055906296, 0.11225610226392746, 0.1268053501844406, 0.0033445297740399837, -0.15252114832401276, -0.20316466689109802, -0.24262459576129913, -0.27680984139442444, -0.2508259117603302, -0.25541940331459045, -0.13986733555793762, -0.1009112000465393, -0.0409189835190773, 0.01677248813211918, 0.09104401618242264, 0.11744193732738495, -0.01881333254277706, -0.06462796032428741, -0.09866053611040115, -0.13988752663135529, -0.18064619600772858, -0.20672756433486938, -0.14516109228134155, -0.09997013211250305, -0.03966138884425163, 0.04409479349851608, 0.08448117226362228, 0.022713713347911835, 0.11368632316589355], "variant_score": 0.15502478182315826}, {"variant_sequence": "TTCAGGAAGGCGGCTGCTGTGGAATGGGGAACGAAGTCTGGCAGCCTGGGCCATTAGGAACCAAGGGCAGTCCCC", "score": 0.3995003402233124, "weights": [0.018601132556796074, 0.04146856814622879, 0.06279436498880386, 0.0303802527487278, 0.08161704987287521, -0.18469183146953583, -0.04179679602384567, 0.13066841661930084, 0.10764551162719727, 0.024414075538516045, 0.01086217351257801, -0.029563043266534805, -0.09890474379062653, -0.12155183404684067, 0.07070533186197281, 0.051959287375211716, -0.0149879464879632, 0.11226548254489899, 0.09757523983716965, 0.1421319842338562, 0.063463494181633, -0.11609703302383423, -0.018576499074697495, 0.10973110795021057, 0.23215319216251373, 0.21154475212097168, 0.07955250144004822, -0.07559268921613693, -0.23767077922821045, -0.07895562797784805, 0.01866190880537033, -0.025357678532600403, -0.1426972895860672, -0.04214640334248543, 0.07542707771062851, 0.03535448759794235, 0.10745697468519211, 0.1096954420208931, 0.1666564792394638, 0.14775177836418152, 0.04806403070688248, -0.11646011471748352, 0.11465569585561752, 0.038611069321632385, -0.09091529250144958, -0.05587856099009514, 0.15314657986164093, 0.14796042442321777, -0.02143052965402603, -0.1697247475385666, -0.2537075877189636, -0.278970867395401, -0.1603005975484848, -0.08003057539463043, 0.015739627182483673, 0.10045544803142548, 0.05884268507361412, -0.1401330977678299, -0.08109067380428314, -0.026264574378728867, -0.11289334297180176, -0.178873211145401, -0.03575383126735687, 0.09791688621044159, 0.07676135748624802, -0.03912844508886337, -0.1773148775100708, -0.21827004849910736, -0.019264034926891327, -0.07927677780389786, 0.026698464527726173, 0.03132807835936546, 0.024355826899409294, -0.024643471464514732, -0.09370629489421844], "sequence": "TTCAGGAAGGCGGCTGCTGTGGAATGGGGAACGAAGTGTGGCAGCCTGGGCCATTAGGAACCAAGGGCAGTCCCC", "variant_id": "rs10933431", "id": "rs10933431", "variant_weights": [0.018567705526947975, 0.04144755005836487, 0.06286942213773727, 0.030254151672124863, 0.08134287595748901, -0.18495553731918335, -0.042144764214754105, 0.13015852868556976, 0.10687493532896042, 0.023478880524635315, 0.0097264489158988, -0.03108660876750946, -0.10069583356380463, -0.12354358285665512, 0.06764189153909683, 0.04946078732609749, -0.01761840097606182, 0.10811718553304672, 0.0939311757683754, 0.13750767707824707, 0.05967826768755913, -0.12054581940174103, -0.023280669003725052, 0.10463759303092957, 0.22392262518405914, 0.20521040260791779, 0.0729617327451706, -0.08188072592020035, -0.24212822318077087, -0.0736621767282486, 0.038919847458601, 0.011859552934765816, -0.04001834988594055, 0.01600920967757702, 0.11372732371091843, 0.06566529721021652, 0.027531379833817482, 0.07064176350831985, 0.1911652535200119, 0.18478159606456757, -0.012267686426639557, -0.1233694776892662, 0.07762835174798965, 0.012554601766169071, -0.06620506197214127, -0.04394838958978653, 0.12654754519462585, 0.11767032742500305, -0.00813238974660635, -0.15415699779987335, -0.24294228851795197, -0.27135246992111206, -0.15745526552200317, -0.0763314887881279, 0.01940423808991909, 0.10357560962438583, 0.06664906442165375, -0.1319647878408432, -0.07659735530614853, -0.02235632948577404, -0.10907455533742905, -0.17586444318294525, -0.033709194511175156, 0.0999801978468895, 0.0806937962770462, -0.03518993407487869, -0.17357689142227173, -0.2160063087940216, -0.01776679791510105, -0.07684708386659622, 0.028191743418574333, 0.03262970224022865, 0.02535584382712841, -0.023703888058662415, -0.0927559956908226], "variant_score": 0.42943331599235535}, {"variant_sequence": "TTCAGGAAGGCGGCTGCTGTGGAATGGGGAACGAAGTGTGGCAGCCTGGGCCATTAGGAACCAAGGGCAGTCCCC", "score": 0.3995003402233124, "weights": [0.018601132556796074, 0.04146856814622879, 0.06279436498880386, 0.0303802527487278, 0.08161704987287521, -0.18469183146953583, -0.04179679602384567, 0.13066841661930084, 0.10764551162719727, 0.024414075538516045, 0.01086217351257801, -0.029563043266534805, -0.09890474379062653, -0.12155183404684067, 0.07070533186197281, 0.051959287375211716, -0.0149879464879632, 0.11226548254489899, 0.09757523983716965, 0.1421319842338562, 0.063463494181633, -0.11609703302383423, -0.018576499074697495, 0.10973110795021057, 0.23215319216251373, 0.21154475212097168, 0.07955250144004822, -0.07559268921613693, -0.23767077922821045, -0.07895562797784805, 0.01866190880537033, -0.025357678532600403, -0.1426972895860672, -0.04214640334248543, 0.07542707771062851, 0.03535448759794235, 0.10745697468519211, 0.1096954420208931, 0.1666564792394638, 0.14775177836418152, 0.04806403070688248, -0.11646011471748352, 0.11465569585561752, 0.038611069321632385, -0.09091529250144958, -0.05587856099009514, 0.15314657986164093, 0.14796042442321777, -0.02143052965402603, -0.1697247475385666, -0.2537075877189636, -0.278970867395401, -0.1603005975484848, -0.08003057539463043, 0.015739627182483673, 0.10045544803142548, 0.05884268507361412, -0.1401330977678299, -0.08109067380428314, -0.026264574378728867, -0.11289334297180176, -0.178873211145401, -0.03575383126735687, 0.09791688621044159, 0.07676135748624802, -0.03912844508886337, -0.1773148775100708, -0.21827004849910736, -0.019264034926891327, -0.07927677780389786, 0.026698464527726173, 0.03132807835936546, 0.024355826899409294, -0.024643471464514732, -0.09370629489421844], "sequence": "TTCAGGAAGGCGGCTGCTGTGGAATGGGGAACGAAGTGTGGCAGCCTGGGCCATTAGGAACCAAGGGCAGTCCCC", "variant_id": "rs10933431", "id": "rs10933431", "variant_weights": [0.018601132556796074, 0.04146856814622879, 0.06279436498880386, 0.0303802527487278, 0.08161704987287521, -0.18469183146953583, -0.04179679602384567, 0.13066841661930084, 0.10764551162719727, 0.024414075538516045, 0.01086217351257801, -0.029563043266534805, -0.09890474379062653, -0.12155183404684067, 0.07070533186197281, 0.051959287375211716, -0.0149879464879632, 0.11226548254489899, 0.09757523983716965, 0.1421319842338562, 0.063463494181633, -0.11609703302383423, -0.018576499074697495, 0.10973110795021057, 0.23215319216251373, 0.21154475212097168, 0.07955250144004822, -0.07559268921613693, -0.23767077922821045, -0.07895562797784805, 0.01866190880537033, -0.025357678532600403, -0.1426972895860672, -0.04214640334248543, 0.07542707771062851, 0.03535448759794235, 0.10745697468519211, 0.1096954420208931, 0.1666564792394638, 0.14775177836418152, 0.04806403070688248, -0.11646011471748352, 0.11465569585561752, 0.038611069321632385, -0.09091529250144958, -0.05587856099009514, 0.15314657986164093, 0.14796042442321777, -0.02143052965402603, -0.1697247475385666, -0.2537075877189636, -0.278970867395401, -0.1603005975484848, -0.08003057539463043, 0.015739627182483673, 0.10045544803142548, 0.05884268507361412, -0.1401330977678299, -0.08109067380428314, -0.026264574378728867, -0.11289334297180176, -0.178873211145401, -0.03575383126735687, 0.09791688621044159, 0.07676135748624802, -0.03912844508886337, -0.1773148775100708, -0.21827004849910736, -0.019264034926891327, -0.07927677780389786, 0.026698464527726173, 0.03132807835936546, 0.024355826899409294, -0.024643471464514732, -0.09370629489421844], "variant_score": 0.3995003402233124}, {"variant_sequence": "TCATGAGGGTGAGGCCTTAATGATAATATTAGTGCCCATAGGAGAAGAGGCACCAGAGAGCTGTACTCTCTCCCT", "score": 0.1894650161266327, "weights": [-0.03430483862757683, -0.036312684416770935, 0.10417947173118591, 0.12016699463129044, 0.10573409497737885, 0.17238648235797882, 0.15060153603553772, 0.04668810963630676, -0.07895217835903168, 0.03679325804114342, -0.013525999151170254, 0.09754455834627151, 0.005258392076939344, -0.15721070766448975, -0.2821676731109619, -0.2943495213985443, -0.22013400495052338, -0.1558050811290741, -0.03068096563220024, 0.01713060773909092, 0.07596240192651749, 0.09751477092504501, -0.1628875583410263, -0.11257141828536987, -0.11907870322465897, -0.08878933638334274, -0.04938899353146553, -0.07785823196172714, -0.009499992243945599, 0.034672632813453674, 0.10734693706035614, 0.14636138081550598, 0.16323691606521606, 0.13307800889015198, 0.026138298213481903, 0.006759348325431347, 0.0028621014207601547, -0.11271727085113525, -0.023551074787974358, 0.10926051437854767, 0.048435457050800323, -0.10606294125318527, -0.024846792221069336, -0.15052002668380737, -0.03669293224811554, 0.05546924099326134, -0.013607857748866081, 0.09306725859642029, 0.005599702708423138, -0.15193957090377808, -0.23570512235164642, -0.09273984283208847, -0.136337548494339, -0.167289137840271, -0.06384900212287903, -0.11507318913936615, -0.018123609945178032, -0.08532201498746872, 0.04342006891965866, -0.04236290231347084, -0.10463692992925644, -0.02487417683005333, -0.09123949706554413, -0.1093936637043953, 0.02667776495218277, 0.001260000979527831, -0.033009856939315796, 0.004395953379571438, -0.011712638661265373, 0.026511376723647118, 0.04837290942668915, 0.09179873019456863, 0.11618465185165405, 0.08477555960416794, 0.015989994630217552], "sequence": "TCATGAGGGTGAGGCCTTAATGATAATATTAGTGCCCGTAGGAGAAGAGGCACCAGAGAGCTGTACTCTCTCCCT", "variant_id": "rs10939881", "id": "rs10939881", "variant_weights": [-0.03420807793736458, -0.03632942587137222, 0.10433874279260635, 0.12068938463926315, 0.10611391812562943, 0.17278844118118286, 0.15122592449188232, 0.04740004986524582, -0.07808079570531845, 0.037936318665742874, -0.012655590660870075, 0.09857729822397232, 0.0069695427082479, -0.1549801230430603, -0.2800285816192627, -0.29226773977279663, -0.21542887389659882, -0.151661679148674, -0.028371984139084816, 0.019588444381952286, 0.08039113879203796, 0.09995269775390625, -0.159553661942482, -0.1077846884727478, -0.11667490005493164, -0.08618859201669693, -0.046605776995420456, -0.07817012816667557, -0.008649272844195366, 0.032585784792900085, 0.09528191387653351, 0.12101040035486221, 0.13740643858909607, 0.06629908084869385, -0.07051246613264084, -0.14105533063411713, -0.19802935421466827, -0.12013795971870422, -0.01086132787168026, 0.090074822306633, 0.050423115491867065, -0.10784182697534561, -0.034013617783784866, -0.15457861125469208, -0.040133118629455566, 0.051827628165483475, -0.01826019212603569, 0.09008882939815521, 0.001702402252703905, -0.15547622740268707, -0.23773226141929626, -0.09405899792909622, -0.13761526346206665, -0.16830295324325562, -0.06448151916265488, -0.11660212278366089, -0.018916917964816093, -0.08673590421676636, 0.04260259494185448, -0.04359148442745209, -0.10540759563446045, -0.025411320850253105, -0.09209712594747543, -0.10988416522741318, 0.026281598955392838, 0.0008426156709901989, -0.03331899270415306, 0.004082145169377327, -0.011968693695962429, 0.026253320276737213, 0.04818305745720863, 0.09160438925027847, 0.11603124439716339, 0.08461648970842361, 0.01595163717865944], "variant_score": 0.1145034208893776}, {"variant_sequence": "CAGACCTGCACAGTCTAAGACCGGATTCATTAGTACATGTGGCTACTGGGCACTTGAAATACAGCCAGTCCCAAG", "score": 0.03050815872848034, "weights": [-0.13658936321735382, 0.018014982342720032, -0.06782214343547821, -0.03221714869141579, -0.07405155152082443, -0.07665134966373444, -0.0156483743339777, -0.11946268379688263, -0.22998470067977905, -0.12323182821273804, -0.15030808746814728, -0.06787603348493576, -0.16701948642730713, -0.17385801672935486, -0.24242949485778809, -0.172281414270401, -0.12127100676298141, -0.049157027155160904, 0.01796707883477211, -0.029887966811656952, -0.03998459875583649, 0.05068936571478844, 0.02377409115433693, -0.2035370171070099, -0.08459997177124023, -0.0694085955619812, -0.03849324584007263, -0.009304316714406013, -0.09166751056909561, -0.07161824405193329, -0.02400585450232029, 0.030954524874687195, -0.02462203986942768, -0.08332465589046478, -0.0012655685422942042, -0.03781374171376228, 0.06777922064065933, 0.0921931192278862, 0.011715860106050968, 0.10643454641103745, 0.06367865949869156, -0.0991167426109314, -0.19878439605236053, -0.1059785932302475, 0.06686078757047653, 0.08234984427690506, 0.16702941060066223, 0.16690918803215027, 0.016298217698931694, -0.14520306885242462, -0.22828729450702667, -0.08396116644144058, -0.11290891468524933, -0.07856118679046631, -0.007208835333585739, -0.1170792207121849, -0.17409415543079376, -0.1353127360343933, -0.1065480187535286, -0.08936500549316406, -0.0072388844564557076, -0.02303147129714489, 0.02716643735766411, -0.030359599739313126, -0.1475847065448761, -0.1678846776485443, -0.01966371014714241, -0.06705151498317719, -0.010877537541091442, -0.034619931131601334, -0.07504313439130783, -0.08791811019182205, 0.2930760085582733, 0.3273029923439026, 0.0941033735871315], "sequence": "CAGACCTGCACAGTCTAAGACCGGATTCATTAGTACACGTGGCTACTGGGCACTTGAAATACAGCCAGTCCCAAG", "variant_id": "rs10947943", "id": "rs10947943", "variant_weights": [-0.1366020143032074, 0.017969796434044838, -0.06789207458496094, -0.0323319137096405, -0.0741969421505928, -0.07682283222675323, -0.015912175178527832, -0.11968506872653961, -0.2302333116531372, -0.1234743520617485, -0.1506142020225525, -0.06827039271593094, -0.16752596199512482, -0.17439894378185272, -0.24263900518417358, -0.17292794585227966, -0.12143917381763458, -0.049386635422706604, 0.017742710188031197, -0.02993476204574108, -0.04039730131626129, 0.049673352390527725, 0.02170521765947342, -0.20652735233306885, -0.08823700994253159, -0.07355029881000519, -0.042294301092624664, -0.012001938186585903, -0.09467839449644089, -0.07558266818523407, -0.026844998821616173, 0.03106898069381714, -0.021332500502467155, -0.10076399147510529, -0.03409240022301674, -0.06452257931232452, 0.01809580996632576, 0.10540476441383362, 0.1352468878030777, 0.16041506826877594, 0.13083519041538239, -0.04385722801089287, -0.1750418245792389, -0.09397182613611221, 0.07464701682329178, 0.08680284023284912, 0.16803649067878723, 0.16556689143180847, 0.013663074932992458, -0.1485060602426529, -0.23034317791461945, -0.08548454940319061, -0.11461200565099716, -0.07984916865825653, -0.008440639823675156, -0.11976233124732971, -0.17536422610282898, -0.13638626039028168, -0.10750626027584076, -0.09021598100662231, -0.008026085793972015, -0.023869048804044724, 0.02659221924841404, -0.03174412623047829, -0.14838439226150513, -0.16851091384887695, -0.02008219063282013, -0.06802796572446823, -0.011473802849650383, -0.03515474125742912, -0.07544983923435211, -0.08820687979459763, 0.29303455352783203, 0.32722949981689453, 0.09352293610572815], "variant_score": 0.03605003282427788}, {"variant_sequence": "GGATTTGAGTATAAGTTCTAACTTCTTAGGGCAAAACGAATTTTGTTAGGTCTTTTTTGTGGAACTAAAGTGTTG", "score": 0.03613715246319771, "weights": [-0.08496133238077164, -0.1974247694015503, -0.13607439398765564, -0.09523182362318039, -0.012358336709439754, 0.07302170991897583, 0.04161671921610832, 0.017207860946655273, -0.1460793912410736, -0.18087875843048096, -0.12194637209177017, -0.12580464780330658, -0.03255794197320938, 0.017795167863368988, -0.07549070566892624, -0.10969772934913635, -0.09138061851263046, -0.11310292035341263, -0.16879194974899292, -0.09556244313716888, -0.04711718112230301, -0.05649055913090706, -0.08612791448831558, -0.03892980515956879, -0.0031401412561535835, -0.056029755622148514, 0.02428886480629444, 0.15536253154277802, 0.13975133001804352, -0.021864090114831924, -0.24975159764289856, -0.3796713948249817, -0.27707502245903015, -0.231609508395195, -0.28983429074287415, -0.32016870379447937, -0.24366629123687744, -0.33911317586898804, -0.29784253239631653, -0.2401597797870636, -0.13067521154880524, -0.07350972294807434, -0.010171939618885517, 0.06533496826887131, 0.09585846960544586, -0.03872838243842125, 0.021699100732803345, 0.1562212109565735, 0.1142418161034584, -0.03989386558532715, -2.2089050617069006e-05, 0.006421006750315428, 0.015149346552789211, 0.03904040902853012, 0.05067489296197891, 0.052651043981313705, 0.06475435197353363, 0.14280067384243011, 0.2256513237953186, 0.14474345743656158, 0.03944766893982887, -0.18436254560947418, -0.14417973160743713, -0.11966216564178467, -0.22686463594436646, -0.2540823519229889, -0.14195995032787323, -0.054932065308094025, 0.03991397097706795, 0.018511086702346802, 0.10819492489099503, 0.29067423939704895, 0.34693965315818787, 0.3330264091491699, 0.2603587508201599], "sequence": "GGATTTGAGTATAAGTTCTAACTTCTTAGGGCAAAACAAATTTTGTTAGGTCTTTTTTGTGGAACTAAAGTGTTG", "variant_id": "rs10948363", "id": "rs10948363", "variant_weights": [-0.0843464657664299, -0.19879600405693054, -0.13412846624851227, -0.09814153611660004, -0.019568316638469696, 0.058616988360881805, 0.001147538423538208, -0.015179568901658058, -0.19208645820617676, -0.1987583041191101, -0.14796310663223267, -0.13501641154289246, -0.03917733207345009, 0.01247492991387844, -0.08421318233013153, -0.11369210481643677, -0.09470321238040924, -0.11626118421554565, -0.170734241604805, -0.09704036265611649, -0.04865860566496849, -0.058262333273887634, -0.08726455271244049, -0.04032164439558983, -0.004754852037876844, -0.057695385068655014, 0.022022811695933342, 0.15017080307006836, 0.12833444774150848, -0.04200395569205284, -0.28182902932167053, -0.4151773750782013, -0.28173553943634033, -0.17722156643867493, -0.034527651965618134, 0.036330338567495346, 0.06650601327419281, 0.005532907322049141, -0.06429963558912277, -0.030701586976647377, -0.08312687277793884, -0.040366947650909424, 0.04187605530023575, 0.10149971395730972, 0.16780506074428558, -0.0007418275345116854, 0.05780833214521408, 0.19069552421569824, 0.17665669322013855, 0.01954166777431965, 0.03358473256230354, 0.037586573511362076, 0.022339534014463425, 0.03908088430762291, 0.046470239758491516, 0.044934604316949844, 0.055460453033447266, 0.1408015340566635, 0.24187897145748138, 0.15290437638759613, 0.06269887834787369, -0.15849784016609192, -0.1287977397441864, -0.11099913716316223, -0.23117123544216156, -0.2528015077114105, -0.1905442774295807, -0.11706233769655228, -0.027868589386343956, -0.010315123945474625, 0.08569840341806412, 0.2631499469280243, 0.3407268822193146, 0.3311499059200287, 0.25748807191848755], "variant_score": 0.17893502116203308}, {"variant_sequence": "GAGTTCAAGACCAGCCTGGCCAAGATGGTGAAACCCCATCTCTACTAAAAATACAAAAATTAGCCAGGTGTGGTG", "score": 0.0009288741275668144, "weights": [-0.14418403804302216, -0.013922786340117455, -0.2074374258518219, -0.15564028918743134, -0.12537257373332977, -0.16357485949993134, -0.1258845329284668, -0.0714341253042221, -0.18608829379081726, -0.1454828530550003, -0.208062082529068, -0.17620986700057983, 0.040937818586826324, -0.021162062883377075, -0.1729387640953064, -0.12288322299718857, 0.12522034347057343, 0.08895601332187653, -0.16397635638713837, -0.3379001021385193, -0.3459838926792145, -0.24462243914604187, -0.14250294864177704, -0.124407559633255, -0.05522291362285614, 0.11819107085466385, 0.06853863596916199, -0.07234697788953781, -0.00981129053980112, -0.15148238837718964, -0.0873471051454544, 0.0015876216348260641, 0.06056398153305054, -0.00925674382597208, -0.08306930214166641, -0.14067600667476654, -0.18218955397605896, -0.11549217253923416, -0.03352584317326546, -0.04290445148944855, -0.013738559558987617, -0.03884009271860123, -0.05075418949127197, -0.10146551579236984, -0.043571628630161285, -0.15878184139728546, -0.3151223063468933, -0.29517337679862976, -0.26544898748397827, -0.23884518444538116, -0.21108070015907288, -0.14779481291770935, -0.2416199892759323, -0.22194449603557587, -0.3369607925415039, -0.3362485468387604, -0.29930439591407776, -0.2508006989955902, -0.18871648609638214, -0.10567472875118256, -0.0218918789178133, 0.08525899797677994, 0.04204275459051132, -0.05951772257685661, -0.10231845825910568, 0.05877934396266937, 0.016173750162124634, -0.09301074594259262, 0.03501742705702782, 0.007252195384353399, 0.10772200673818588, 0.25964346528053284, 0.14579005539417267, 0.17643682658672333, 0.10290144383907318], "sequence": "GAGTTCAAGACCAGCCTGGCCAAGATGGTGAAACCCCATCTCTACTAAAAATACAAAAATTAGCCAGGTGTGGTG", "variant_id": "rs10953388", "id": "rs10953388", "variant_weights": [-0.14418403804302216, -0.013922786340117455, -0.2074374258518219, -0.15564028918743134, -0.12537257373332977, -0.16357485949993134, -0.1258845329284668, -0.0714341253042221, -0.18608829379081726, -0.1454828530550003, -0.208062082529068, -0.17620986700057983, 0.040937818586826324, -0.021162062883377075, -0.1729387640953064, -0.12288322299718857, 0.12522034347057343, 0.08895601332187653, -0.16397635638713837, -0.3379001021385193, -0.3459838926792145, -0.24462243914604187, -0.14250294864177704, -0.124407559633255, -0.05522291362285614, 0.11819107085466385, 0.06853863596916199, -0.07234697788953781, -0.00981129053980112, -0.15148238837718964, -0.0873471051454544, 0.0015876216348260641, 0.06056398153305054, -0.00925674382597208, -0.08306930214166641, -0.14067600667476654, -0.18218955397605896, -0.11549217253923416, -0.03352584317326546, -0.04290445148944855, -0.013738559558987617, -0.03884009271860123, -0.05075418949127197, -0.10146551579236984, -0.043571628630161285, -0.15878184139728546, -0.3151223063468933, -0.29517337679862976, -0.26544898748397827, -0.23884518444538116, -0.21108070015907288, -0.14779481291770935, -0.2416199892759323, -0.22194449603557587, -0.3369607925415039, -0.3362485468387604, -0.29930439591407776, -0.2508006989955902, -0.18871648609638214, -0.10567472875118256, -0.0218918789178133, 0.08525899797677994, 0.04204275459051132, -0.05951772257685661, -0.10231845825910568, 0.05877934396266937, 0.016173750162124634, -0.09301074594259262, 0.03501742705702782, 0.007252195384353399, 0.10772200673818588, 0.25964346528053284, 0.14579005539417267, 0.17643682658672333, 0.10290144383907318], "variant_score": 0.0009288741275668144}, {"variant_sequence": "GTGTTTGTGTGTGTGTATTCTCATTTAATAATTTAATAAAAATTAAAGTGGAAAAAAATCAAAATTCATGCAAAA", "score": 0.024872254580259323, "weights": [-0.06202270835638046, 0.04638780653476715, -0.016870994120836258, 0.02487463690340519, 0.1018238216638565, 0.20243264734745026, 0.37276649475097656, 0.2311217188835144, 0.2982305884361267, 0.25457897782325745, 0.3026983141899109, 0.21500255167484283, 0.21534417569637299, 0.15246400237083435, 0.0998673290014267, -0.00873305182904005, 0.07578244805335999, 0.06735406070947647, 0.0848255604505539, 0.09339258819818497, -0.012579110451042652, -0.03305288031697273, -0.06659382581710815, -0.03155308589339256, -0.04542350023984909, -0.07138752937316895, -0.12816499173641205, -0.12993891537189484, -0.07113630324602127, -0.08347723633050919, -0.04956178367137909, -0.000590714393183589, -0.02687714248895645, -0.06153520569205284, -0.14463193714618683, -0.17168563604354858, -0.13572169840335846, -0.26172587275505066, -0.2624044418334961, -0.23084035515785217, -0.20238685607910156, -0.17870137095451355, -0.13356618583202362, -0.12693163752555847, -0.07908635586500168, 0.002045177388936281, 0.09011081606149673, 0.04043687880039215, 0.11628497391939163, -0.048050373792648315, -0.2824876010417938, -0.26193323731422424, -0.24960356950759888, -0.23395325243473053, -0.2171020656824112, -0.1841505914926529, -0.15095533430576324, -0.15130384266376495, -0.15299458801746368, -0.2280399352312088, -0.33548611402511597, -0.31209972500801086, -0.27661824226379395, -0.2337508350610733, -0.09850364178419113, -0.08593052625656128, -0.0760934054851532, -0.038189470767974854, 0.013040132820606232, -0.1359173208475113, -0.2860719561576843, -0.1318555772304535, 0.05695374310016632, 0.09355005621910095, 0.07808743417263031], "sequence": "GTGTTTGTGTGTGTGTATTCTCATTTAATAATTTAATAAAAATTAAAGTGGAAAAAAATCAAAATTCATGCAAAA", "variant_id": "rs10968750", "id": "rs10968750", "variant_weights": [-0.06202270835638046, 0.04638780653476715, -0.016870994120836258, 0.02487463690340519, 0.1018238216638565, 0.20243264734745026, 0.37276649475097656, 0.2311217188835144, 0.2982305884361267, 0.25457897782325745, 0.3026983141899109, 0.21500255167484283, 0.21534417569637299, 0.15246400237083435, 0.0998673290014267, -0.00873305182904005, 0.07578244805335999, 0.06735406070947647, 0.0848255604505539, 0.09339258819818497, -0.012579110451042652, -0.03305288031697273, -0.06659382581710815, -0.03155308589339256, -0.04542350023984909, -0.07138752937316895, -0.12816499173641205, -0.12993891537189484, -0.07113630324602127, -0.08347723633050919, -0.04956178367137909, -0.000590714393183589, -0.02687714248895645, -0.06153520569205284, -0.14463193714618683, -0.17168563604354858, -0.13572169840335846, -0.26172587275505066, -0.2624044418334961, -0.23084035515785217, -0.20238685607910156, -0.17870137095451355, -0.13356618583202362, -0.12693163752555847, -0.07908635586500168, 0.002045177388936281, 0.09011081606149673, 0.04043687880039215, 0.11628497391939163, -0.048050373792648315, -0.2824876010417938, -0.26193323731422424, -0.24960356950759888, -0.23395325243473053, -0.2171020656824112, -0.1841505914926529, -0.15095533430576324, -0.15130384266376495, -0.15299458801746368, -0.2280399352312088, -0.33548611402511597, -0.31209972500801086, -0.27661824226379395, -0.2337508350610733, -0.09850364178419113, -0.08593052625656128, -0.0760934054851532, -0.038189470767974854, 0.013040132820606232, -0.1359173208475113, -0.2860719561576843, -0.1318555772304535, 0.05695374310016632, 0.09355005621910095, 0.07808743417263031], "variant_score": 0.024872254580259323}, {"variant_sequence": "CTTACCTTGTCTTATTCTGATATAGGGTAAACTTAATGTCTTACCTTGTCATATTCTGATATATTCAAAGTGAAT", "score": 0.03710832819342613, "weights": [-0.14333680272102356, -0.09837585687637329, -0.09475114196538925, 0.006411098409444094, -0.005447473376989365, -0.05040959268808365, -0.0780111625790596, 0.021091299131512642, -0.01838536188006401, -0.0821302980184555, -0.0832928717136383, -0.1442388892173767, -0.10894154012203217, -0.021099699661135674, -0.010377692058682442, 0.017674775794148445, 0.05234377831220627, 0.008856630884110928, -0.0867374837398529, -0.18380314111709595, -0.12767912447452545, -0.11937947571277618, -0.013386378064751625, 0.13040825724601746, 0.10048843175172806, -0.08778703957796097, -0.3146111071109772, -0.2946672737598419, -0.17738813161849976, -0.12217927724123001, -0.08421051502227783, -0.1449001431465149, -0.21427854895591736, -0.180643230676651, -0.058717407286167145, 0.008733121678233147, 0.05651966109871864, 0.06580531597137451, -0.055887650698423386, -0.06242130696773529, -0.11948201060295105, -0.06967083364725113, 0.04223991185426712, 0.03859976306557655, -0.01903560757637024, -0.06162494048476219, 0.0302579328417778, -0.015616417862474918, -0.1115167960524559, -0.14416085183620453, -0.16065280139446259, -0.13163568079471588, -0.039998024702072144, -0.011187585070729256, 0.040854912251234055, 0.09393719583749771, 0.03837793320417404, 0.01324485708028078, -0.05118533968925476, -0.0638829693198204, -0.061562925577163696, -0.05859845504164696, -0.0489506870508194, -0.07607004791498184, -0.11074068397283554, -0.10469646006822586, -0.11574286222457886, -0.024055486544966698, 0.09344019740819931, 0.1334182769060135, 0.09892947971820831, 0.1377851665019989, 0.2091682404279709, 0.16222770512104034, 0.010629579424858093], "sequence": "CTTACCTTGTCTTATTCTGATATAGGGTAAACTTAATGTCTTACCTTGTCATATTCTGATATATTCAAAGTGAAT", "variant_id": "rs11055612", "id": "rs11055612", "variant_weights": [-0.14333680272102356, -0.09837585687637329, -0.09475114196538925, 0.006411098409444094, -0.005447473376989365, -0.05040959268808365, -0.0780111625790596, 0.021091299131512642, -0.01838536188006401, -0.0821302980184555, -0.0832928717136383, -0.1442388892173767, -0.10894154012203217, -0.021099699661135674, -0.010377692058682442, 0.017674775794148445, 0.05234377831220627, 0.008856630884110928, -0.0867374837398529, -0.18380314111709595, -0.12767912447452545, -0.11937947571277618, -0.013386378064751625, 0.13040825724601746, 0.10048843175172806, -0.08778703957796097, -0.3146111071109772, -0.2946672737598419, -0.17738813161849976, -0.12217927724123001, -0.08421051502227783, -0.1449001431465149, -0.21427854895591736, -0.180643230676651, -0.058717407286167145, 0.008733121678233147, 0.05651966109871864, 0.06580531597137451, -0.055887650698423386, -0.06242130696773529, -0.11948201060295105, -0.06967083364725113, 0.04223991185426712, 0.03859976306557655, -0.01903560757637024, -0.06162494048476219, 0.0302579328417778, -0.015616417862474918, -0.1115167960524559, -0.14416085183620453, -0.16065280139446259, -0.13163568079471588, -0.039998024702072144, -0.011187585070729256, 0.040854912251234055, 0.09393719583749771, 0.03837793320417404, 0.01324485708028078, -0.05118533968925476, -0.0638829693198204, -0.061562925577163696, -0.05859845504164696, -0.0489506870508194, -0.07607004791498184, -0.11074068397283554, -0.10469646006822586, -0.11574286222457886, -0.024055486544966698, 0.09344019740819931, 0.1334182769060135, 0.09892947971820831, 0.1377851665019989, 0.2091682404279709, 0.16222770512104034, 0.010629579424858093], "variant_score": 0.03710832819342613}, {"variant_sequence": "TGCCACGGGTGGGAGGTGGGGTTTCGTCCTTGGAGCTTTGGGCTTCTCAGAGCTCTGGGACCAGAGCTGGTGAGA", "score": 0.5615342259407043, "weights": [0.07611256092786789, 0.10084035247564316, -0.051091231405735016, -0.09083262830972672, 0.10709872096776962, 0.12318601459264755, 0.14257967472076416, 0.07771831005811691, 0.0009158165194094181, 0.16545557975769043, 0.1361415833234787, -0.06803659349679947, -0.18004806339740753, 0.04432979226112366, -0.03482459485530853, -0.10491126775741577, 0.07242918759584427, 0.04561932012438774, -0.03436601534485817, -0.12900666892528534, -0.2328336089849472, -0.09735750406980515, 0.008212742395699024, 0.10526812076568604, 0.2518370747566223, 0.14029191434383392, 0.016472533345222473, 0.01036213617771864, -0.03222600370645523, 0.019605979323387146, 0.14878088235855103, 0.1165323331952095, -0.023357735946774483, 0.08286627382040024, -0.010007309727370739, -0.05269796401262283, 0.05945379659533501, 0.06723812222480774, 0.14819996058940887, 0.1439405232667923, 0.029574275016784668, -0.12242713570594788, -0.18829968571662903, -0.11375691741704941, -0.023957515135407448, -0.00898932758718729, -0.05229742079973221, -0.050666455179452896, -0.04701106995344162, -0.0626363530755043, -0.017820077016949654, -0.09369771182537079, -0.16985411942005157, -0.036804620176553726, 0.010697048157453537, 0.13997359573841095, 0.11419619619846344, -0.01823444291949272, -0.15953192114830017, -0.049091026186943054, -0.1225251853466034, -0.15277764201164246, -0.04365343227982521, -0.0733855590224266, 0.06734902411699295, 0.0703834518790245, 0.008992141112685204, 0.16507329046726227, 0.147471621632576, 0.01794332265853882, 0.08069244772195816, -0.0607682466506958, 0.008627822622656822, -0.14324067533016205, -0.07204893976449966], "sequence": "TGCCACGGGTGGGAGGTGGGGTTTCGTCCTTGGAGCTGTGGGCTTCTCAGAGCTCTGGGACCAGAGCTGGTGAGA", "variant_id": "rs11065822", "id": "rs11065822", "variant_weights": [0.07609760016202927, 0.10082326084375381, -0.051102664321660995, -0.09086082130670547, 0.10707108676433563, 0.1231418177485466, 0.1424817591905594, 0.07760515064001083, 0.0007900143973529339, 0.16523243486881256, 0.1359701007604599, -0.06830167025327682, -0.18040424585342407, 0.04376061260700226, -0.03557043895125389, -0.10606343299150467, 0.07044752687215805, 0.04113523289561272, -0.04423436149954796, -0.1501164436340332, -0.2723913788795471, -0.14853142201900482, -0.02286715991795063, 0.0829983726143837, 0.15857592225074768, 0.03391406685113907, -0.01065611932426691, -0.011749097146093845, -0.04959387332201004, 0.002528396202251315, 0.13493826985359192, 0.10645993053913116, -0.0332355722784996, 0.06875617057085037, -0.03523741289973259, -0.09834857285022736, -0.04676663130521774, 0.053485576063394547, 0.17630906403064728, 0.3069492280483246, 0.17984427511692047, -0.06793458014726639, -0.15683411061763763, -0.09662452340126038, -0.013435792177915573, -0.0004065931716468185, -0.048395805060863495, -0.047103989869356155, -0.04527033865451813, -0.06288018077611923, -0.017616789788007736, -0.09522087126970291, -0.17047226428985596, -0.03733270242810249, 0.009945578873157501, 0.1391451060771942, 0.11258210986852646, -0.019959477707743645, -0.1612410694360733, -0.05004888027906418, -0.12339470535516739, -0.15344341099262238, -0.044043369591236115, -0.07433287054300308, 0.06686369329690933, 0.06954360008239746, 0.008498123846948147, 0.16477850079536438, 0.1469024419784546, 0.017371002584695816, 0.0804167240858078, -0.06122685596346855, 0.008380269631743431, -0.14361214637756348, -0.07224982976913452], "variant_score": 0.4986576437950134}, {"variant_sequence": "GAGAGTTGAGTTACATTAAACATAACTGATTACAGTCAGCCCTTTGTACCCGTGAATTCTGGATGTGTTGATTCA", "score": 0.3024020493030548, "weights": [-0.14233611524105072, -0.006654542405158281, -0.16925808787345886, -0.020058639347553253, -0.15535993874073029, -0.0626879408955574, 0.04302658140659332, -0.04216314107179642, 0.004210758022964001, -0.13976632058620453, -0.1375771462917328, -0.10718666762113571, -0.07654548436403275, -0.10875402390956879, -0.16398465633392334, -0.14581112563610077, -0.14574749767780304, -0.1719188690185547, -0.23748181760311127, -0.25424811244010925, -0.1740177571773529, -0.2466171383857727, -0.1752336025238037, -0.15011197328567505, -0.08958263695240021, -0.016478383913636208, -0.001873943954706192, -0.07223208248615265, -0.11384589225053787, -0.12205857038497925, -0.08984221518039703, -0.022431528195738792, -0.028197726234793663, 0.018718138337135315, -0.020599400624632835, 0.039568785578012466, 0.07074624300003052, 0.008837208151817322, -0.10204996913671494, -0.1393686980009079, -0.13368530571460724, -0.12935036420822144, -0.07926491647958755, 0.0007662612479180098, 0.08196070045232773, 0.20992790162563324, 0.008636214770376682, 0.12503618001937866, 0.10643137991428375, 0.05938123166561127, 0.04349120333790779, -0.07283580303192139, -0.055366676300764084, -0.12058624625205994, -0.10185074061155319, -0.0390164740383625, -0.031032240018248558, 0.008892730809748173, 0.18694277107715607, 0.26241669058799744, 0.3584875464439392, 0.23450002074241638, 0.2387130856513977, 0.23997625708580017, 0.34286412596702576, 0.1673477590084076, 0.14544084668159485, 0.05143626034259796, 0.11421206593513489, 0.10864312946796417, 0.0706675574183464, 0.07829628884792328, 0.1127057746052742, 0.10716589540243149, 0.1297372579574585], "sequence": "GAGAGTTGAGTTACATTAAACATAACTGATTACAGTCGGCCCTTTGTACCCGTGAATTCTGGATGTGTTGATTCA", "variant_id": "rs11129169", "id": "rs11129169", "variant_weights": [-0.14227207005023956, -0.006576961372047663, -0.16911157965660095, -0.01989061012864113, -0.15512323379516602, -0.062375571578741074, 0.04332593083381653, -0.04192950204014778, 0.004496055189520121, -0.13936126232147217, -0.13703572750091553, -0.10669513046741486, -0.07622981071472168, -0.10835941135883331, -0.163475900888443, -0.14508751034736633, -0.14510463178157806, -0.17158053815364838, -0.23722615838050842, -0.2540434002876282, -0.1737978160381317, -0.2460963875055313, -0.17441275715827942, -0.14977960288524628, -0.08930005878210068, -0.015914002433419228, -0.0007226068992167711, -0.07166288048028946, -0.1139187291264534, -0.12214111536741257, -0.09120941907167435, -0.028116505593061447, -0.035593561828136444, -0.020993515849113464, -0.10126905143260956, -0.09707523137331009, -0.09861981868743896, 0.03845071420073509, -0.0340367816388607, -0.09886827319860458, -0.11035995185375214, -0.11518526822328568, -0.07681748270988464, 0.00055881985463202, 0.08058247715234756, 0.2061733901500702, 0.006758654490113258, 0.12197798490524292, 0.10368798673152924, 0.056892648339271545, 0.04122814163565636, -0.07627537101507187, -0.057282451540231705, -0.12374561280012131, -0.10362771153450012, -0.04058229550719261, -0.03242028132081032, 0.008164087310433388, 0.1848899871110916, 0.2614947259426117, 0.356769323348999, 0.23278836905956268, 0.23787520825862885, 0.23946291208267212, 0.34181952476501465, 0.166763037443161, 0.14458805322647095, 0.050963010638952255, 0.11382701992988586, 0.10801862180233002, 0.07030831277370453, 0.0780501738190651, 0.11260807514190674, 0.10699289292097092, 0.12966591119766235], "variant_score": 0.2437698096036911}, {"variant_sequence": "AACAGCTGGGCATGGTGCGGGTGCCTGTAATCCCAGCTGCGGTGGGAGGATCGTTTGAGTTCAGGAGCTCTGGGC", "score": 0.8370654582977295, "weights": [0.04333675652742386, 0.12157902866601944, 0.06357824057340622, 0.10166385769844055, 0.1205889955163002, 0.031508926302194595, 0.16250738501548767, 0.17297841608524323, 0.04286292940378189, -0.10674040764570236, -0.19130265712738037, 0.026141079142689705, 0.1541440635919571, 0.1551751345396042, 0.04355805739760399, 0.14578545093536377, 0.15416617691516876, 0.10595373064279556, 0.0824677124619484, 0.02761886827647686, -0.06479126960039139, 0.057390280067920685, 0.038481730967760086, -0.08481499552726746, -0.0970812737941742, -0.02098734863102436, -0.09819114208221436, -0.16807767748832703, -0.044497955590486526, 0.011878718622028828, 0.0246644988656044, -0.011593334376811981, -0.0801742672920227, -0.12178392708301544, -0.08206691592931747, -0.06698513776063919, -0.17736724019050598, 0.051232434809207916, 0.07601825147867203, 0.043821826577186584, 0.02337629906833172, -0.03765575587749481, 0.1236087754368782, 0.09641601890325546, -0.012064002454280853, -0.12068477272987366, 0.0393708162009716, -0.03725510463118553, -0.15182487666606903, 0.02271280251443386, 0.05797594413161278, 0.15435659885406494, 0.12308575958013535, 0.03615487739443779, 0.09198062121868134, 0.1670660674571991, 0.32499974966049194, 0.09965617954730988, 0.01999613456428051, -0.012208077125251293, 0.03544747829437256, 0.0326169915497303, 0.0956723541021347, 0.07359752804040909, -0.08299568295478821, 0.0360848605632782, -0.05428814888000488, -0.11265267431735992, -0.03080693632364273, 0.01608647033572197, 0.10880506783723831, 0.11111960560083389, 0.06234193220734596, -0.06438279896974564, -0.2418036013841629], "sequence": "AACAGCTGGGCATGGTGCGGGTGCCTGTAATCCCAGCTGCGGTGGGAGGATCGTTTGAGTTCAGGAGCTCTGGGC", "variant_id": "rs11130222", "id": "rs11130222", "variant_weights": [0.04333675652742386, 0.12157902866601944, 0.06357824057340622, 0.10166385769844055, 0.1205889955163002, 0.031508926302194595, 0.16250738501548767, 0.17297841608524323, 0.04286292940378189, -0.10674040764570236, -0.19130265712738037, 0.026141079142689705, 0.1541440635919571, 0.1551751345396042, 0.04355805739760399, 0.14578545093536377, 0.15416617691516876, 0.10595373064279556, 0.0824677124619484, 0.02761886827647686, -0.06479126960039139, 0.057390280067920685, 0.038481730967760086, -0.08481499552726746, -0.0970812737941742, -0.02098734863102436, -0.09819114208221436, -0.16807767748832703, -0.044497955590486526, 0.011878718622028828, 0.0246644988656044, -0.011593334376811981, -0.0801742672920227, -0.12178392708301544, -0.08206691592931747, -0.06698513776063919, -0.17736724019050598, 0.051232434809207916, 0.07601825147867203, 0.043821826577186584, 0.02337629906833172, -0.03765575587749481, 0.1236087754368782, 0.09641601890325546, -0.012064002454280853, -0.12068477272987366, 0.0393708162009716, -0.03725510463118553, -0.15182487666606903, 0.02271280251443386, 0.05797594413161278, 0.15435659885406494, 0.12308575958013535, 0.03615487739443779, 0.09198062121868134, 0.1670660674571991, 0.32499974966049194, 0.09965617954730988, 0.01999613456428051, -0.012208077125251293, 0.03544747829437256, 0.0326169915497303, 0.0956723541021347, 0.07359752804040909, -0.08299568295478821, 0.0360848605632782, -0.05428814888000488, -0.11265267431735992, -0.03080693632364273, 0.01608647033572197, 0.10880506783723831, 0.11111960560083389, 0.06234193220734596, -0.06438279896974564, -0.2418036013841629], "variant_score": 0.8370654582977295}, {"variant_sequence": "ATAGGCGCATACCACCATGCCCAGCTAATTTTTTTTTGTTTGTTTGTTTGTTTGTTTGTTTTTGAGATGGAGTGT", "score": 0.1977287381887436, "weights": [0.08536742627620697, 0.13404305279254913, 0.2776988446712494, 0.19960108399391174, 0.08691076189279556, -0.017611948773264885, -0.14551937580108643, -0.26378634572029114, -0.16191910207271576, -0.10492831468582153, -0.009239768609404564, -0.05259811878204346, -0.11888375133275986, -0.13580426573753357, -0.13871869444847107, -0.18084880709648132, -0.09722752869129181, 0.019061286002397537, 0.03161057457327843, -0.14611832797527313, -0.1766945868730545, -0.20546340942382812, -0.2198379635810852, -0.183155819773674, -0.42076143622398376, -0.40631163120269775, -0.22249600291252136, -0.12333494424819946, -0.11922679841518402, -0.10390551388263702, -0.1009451374411583, -0.10176767408847809, -0.11585238575935364, -0.10902493447065353, -0.09781573712825775, -0.08715169131755829, -0.07889053970575333, -0.06995760649442673, -0.10903571546077728, -0.06238624453544617, 0.02000233717262745, 0.20797060430049896, -0.05085821449756622, 0.006306773982942104, 0.09040722995996475, 0.2277093380689621, -0.017933452501893044, 0.030002092942595482, 0.101248599588871, 0.18405896425247192, -0.0003804739098995924, 0.05093719810247421, 0.12145211547613144, 0.21166610717773438, 0.030025169253349304, 0.08013582974672318, 0.14421242475509644, 0.22113966941833496, 0.04221588373184204, 0.052669696509838104, 0.05742586404085159, 0.07246030122041702, 0.11202330142259598, 0.14540158212184906, 0.05117374286055565, -0.032621271908283234, 0.0459282286465168, 0.12752008438110352, 0.08392711728811264, -0.059017255902290344, 0.06692128628492355, -0.017774606123566628, 0.07753081619739532, 0.03239180147647858, -0.0639026015996933], "sequence": "ATAGGCGCATACCACCATGCCCAGCTAATTTTTTTTTTTTTGTTTGTTTGTTTGTTTGTTTTTGAGATGGAGTGT", "variant_id": "rs111677930", "id": "rs111677930", "variant_weights": [0.08537625521421432, 0.13408461213111877, 0.2777310609817505, 0.19975394010543823, 0.0870915874838829, -0.01738768070936203, -0.14524191617965698, -0.263446569442749, -0.1615232527256012, -0.10442156344652176, -0.008873536251485348, -0.05213460698723793, -0.11838178336620331, -0.13532297313213348, -0.1381109207868576, -0.1801479011774063, -0.09631195664405823, 0.020318366587162018, 0.03264342248439789, -0.145381361246109, -0.1758645623922348, -0.20429840683937073, -0.21806004643440247, -0.1811271607875824, -0.4172673523426056, -0.3997136652469635, -0.21570247411727905, -0.11555689573287964, -0.11183714121580124, -0.09703513979911804, -0.0972665399312973, -0.09846148639917374, -0.11297722160816193, -0.10001333057880402, -0.1347827911376953, -0.08138282597064972, 0.005331329070031643, 0.22316481173038483, -0.06171390786767006, -0.0021169499959796667, 0.08227651566267014, 0.24600636959075928, -0.02422088012099266, 0.02331225387752056, 0.09323956072330475, 0.19097387790679932, -0.011835739947855473, 0.03807845711708069, 0.10821758210659027, 0.21113140881061554, 0.01052887924015522, 0.060593053698539734, 0.129003643989563, 0.23067393898963928, 0.038706231862306595, 0.08794361352920532, 0.15034495294094086, 0.2349526435136795, 0.04887649416923523, 0.057998158037662506, 0.06133316084742546, 0.07561669498682022, 0.11476486176252365, 0.1536143720149994, 0.055529143661260605, -0.024651549756526947, 0.05016619339585304, 0.13132239878177643, 0.08981901407241821, -0.05337618663907051, 0.07016108185052872, -0.013268707320094109, 0.07949525117874146, 0.03558859974145889, -0.06250571459531784], "variant_score": 0.3644830286502838}, {"variant_sequence": "TCGGCTCACTGCAAGCTCTGCCTCCCAGGTTCACGCCGTTCTCCTGCCTCAGCCTCCCGAGTAGCTGGGACTACA", "score": 0.16616509854793549, "weights": [0.07359573990106583, 0.17660902440547943, 0.306515097618103, -0.032765161246061325, -0.14491133391857147, -0.13023139536380768, -0.12963613867759705, -0.021515892818570137, -0.042505741119384766, 0.009548970498144627, -0.06768005341291428, -0.20908449590206146, -0.03586069121956825, 0.056981779634952545, -0.01983386091887951, -0.1494974046945572, -0.07929768413305283, -0.03249926492571831, 0.0990338921546936, 0.10229653120040894, -0.16185487806797028, -0.16076596081256866, -0.0646558403968811, -0.10745827853679657, -0.1909099817276001, -0.220932275056839, -0.14824114739894867, -0.09112665057182312, -0.2745848596096039, -0.19136440753936768, -0.08411366492509842, -0.08116985112428665, 0.04850209131836891, 0.07605714350938797, 0.012344783172011375, -0.05437927320599556, -0.03825542330741882, -0.12041795998811722, -0.08191002160310745, 0.013555498793721199, 0.03922634944319725, 0.017845366150140762, 0.06512003391981125, 0.02500956878066063, 0.07932481169700623, 0.09729637950658798, -0.07644698768854141, -0.12608900666236877, -0.0920841246843338, -0.06370318681001663, 0.042275264859199524, 0.02829648368060589, -0.08708078414201736, -0.10289470851421356, -0.005652596242725849, 0.02027924545109272, -0.011093389242887497, -0.01576445996761322, -0.060838282108306885, -0.009511211887001991, -0.03703039139509201, -0.0003140451153740287, 0.14770589768886566, 0.12832030653953552, 0.04388417303562164, 0.16594743728637695, 0.15143892168998718, 0.01331306342035532, -0.1275508552789688, -0.017734618857502937, -0.08398670703172684, -0.0003367583267390728, 0.18996722996234894, 0.13208329677581787, 0.11014366149902344], "sequence": "TCGGCTCACTGCAAGCTCTGCCTCCCAGGTTCACGCCGTTCTCCTGCCTCAGCCTCCCGAGTAGCTGGGACTACA", "variant_id": "rs111747604", "id": "rs111747604", "variant_weights": [0.07359573990106583, 0.17660902440547943, 0.306515097618103, -0.032765161246061325, -0.14491133391857147, -0.13023139536380768, -0.12963613867759705, -0.021515892818570137, -0.042505741119384766, 0.009548970498144627, -0.06768005341291428, -0.20908449590206146, -0.03586069121956825, 0.056981779634952545, -0.01983386091887951, -0.1494974046945572, -0.07929768413305283, -0.03249926492571831, 0.0990338921546936, 0.10229653120040894, -0.16185487806797028, -0.16076596081256866, -0.0646558403968811, -0.10745827853679657, -0.1909099817276001, -0.220932275056839, -0.14824114739894867, -0.09112665057182312, -0.2745848596096039, -0.19136440753936768, -0.08411366492509842, -0.08116985112428665, 0.04850209131836891, 0.07605714350938797, 0.012344783172011375, -0.05437927320599556, -0.03825542330741882, -0.12041795998811722, -0.08191002160310745, 0.013555498793721199, 0.03922634944319725, 0.017845366150140762, 0.06512003391981125, 0.02500956878066063, 0.07932481169700623, 0.09729637950658798, -0.07644698768854141, -0.12608900666236877, -0.0920841246843338, -0.06370318681001663, 0.042275264859199524, 0.02829648368060589, 